{
    "file_type": "Only weights",
    "model": {
        "type": "SequentialModel",
        "name": "MLP_42",
        "input_shape": 30,
        "layers": [
            {
                "type": "FullyConnected",
                "name": "FCLayer_name",
                "units": 64,
                "activation": "ReLU",
                "kernel": [
                    [
                        0.027099738436792607,
                        0.22824921600561185,
                        0.10105807457058683,
                        0.07613967471322372,
                        0.20958915734627137,
                        -0.26480128855482665,
                        0.09483373037467849,
                        -0.025954705998127405,
                        -0.2133065393902308,
                        -0.21142511419813614,
                        -0.04888996736115361,
                        -0.19321116590337428,
                        -0.0226642539674114,
                        -0.12843483522577512,
                        0.19811961017812074,
                        0.20039127764194373,
                        -0.1297818985636192,
                        -0.18395145856772221,
                        -0.3206211991194874,
                        -0.1746802643326349,
                        -0.12094244654595693,
                        -0.025191411966164968,
                        -0.08323450211994247,
                        -0.23761311015575265,
                        0.12550641866835113,
                        0.18828026447564614,
                        0.09113030715063743,
                        0.12659949095469064,
                        -0.08940798430373458,
                        -0.11636565757885285,
                        0.23818288471505494,
                        0.19480401524812788,
                        -0.21027353995666076,
                        0.001621016882751276,
                        0.19098808481480267,
                        -0.14107765346571025,
                        0.11148056567294716,
                        0.2845996340283389,
                        -0.167124605002245,
                        0.16287487791873917,
                        -0.026925510352589364,
                        0.14473235042204147,
                        -0.25035940732485046,
                        -0.2438132286259403,
                        0.06317201170825008,
                        0.06712463702340493,
                        -0.02475075177602651,
                        0.0013621296388920086,
                        -0.05506865300746539,
                        0.28839132777320575,
                        0.028572622185760732,
                        -0.09158086540065351,
                        -0.08484516133197424,
                        0.3141159983693571,
                        0.1425215649451796,
                        0.06619351057995088,
                        0.12919415826766134,
                        -0.056755383517509805,
                        0.2637161767123077,
                        0.1447924710062919,
                        -0.022589142098318145,
                        0.04535904848573041,
                        -0.12138610705072095,
                        -0.1338625641000519
                    ],
                    [
                        -0.18163000965462034,
                        0.1512980318663766,
                        0.020082123233387757,
                        -0.2848763731268087,
                        -0.1276663067221395,
                        0.17009919961434153,
                        0.1421755466031718,
                        -0.17769648732545099,
                        -0.14193059015688958,
                        -0.13216892070420128,
                        0.0808640799626699,
                        0.044575598971059394,
                        0.07389244231050109,
                        0.10050419068727917,
                        0.15782941023833708,
                        0.09142071757045236,
                        -0.21534003756397457,
                        0.15027076716431012,
                        0.16280398754806336,
                        -0.22239094146607588,
                        -0.18236526746199408,
                        -0.05012244002400733,
                        -0.13597553499673434,
                        -0.13625278218256723,
                        -0.028664373678016056,
                        0.057095189849444894,
                        -0.2685354145745449,
                        0.00525080965309632,
                        -0.1639671385816387,
                        -0.028010243798767927,
                        -0.2696509237766833,
                        0.025394503944726157,
                        0.15498851730676255,
                        0.26834824520283607,
                        0.11598507175937264,
                        0.2386257605252344,
                        0.18878667713769057,
                        -0.3440799732692978,
                        0.2057682482989624,
                        0.1737522958116104,
                        -0.017764252118307292,
                        -0.1116895041041716,
                        0.08999195816233746,
                        0.18063631026276986,
                        0.1765737530647196,
                        0.07779881240226287,
                        -0.0799960013666372,
                        0.04295798197705232,
                        -0.25581219391944826,
                        0.2774485227376001,
                        0.13446944166907066,
                        -0.1377198693153302,
                        -0.24547743673615177,
                        -0.06836400446969679,
                        -0.045786207174985175,
                        -0.21708780145916456,
                        0.03263744729954446,
                        0.20284784167048212,
                        0.28546322209052016,
                        0.037192535470647145,
                        -0.05251219234798144,
                        -0.14037796409889536,
                        0.15881104293900553,
                        -0.025881614261652156
                    ],
                    [
                        0.2747187895144923,
                        0.1212974319045385,
                        -0.13693787121239506,
                        -0.04400227435258137,
                        0.12604643217099978,
                        -0.16707158903039937,
                        -0.20258368844165545,
                        -0.08585831992799683,
                        0.15701800551040684,
                        -0.06389581180444757,
                        0.3181321324277162,
                        0.16851406469134614,
                        0.14936570043703012,
                        -0.09339940342353253,
                        0.08044776511845991,
                        -0.15813775119724202,
                        -0.03227684377798794,
                        0.11656653950602111,
                        0.03421990236162658,
                        -0.11360214477188937,
                        0.2627637070689879,
                        -0.04517902261413994,
                        -0.047597013453084466,
                        -0.13221463628867886,
                        -0.15206846874676688,
                        0.22405307414963888,
                        -0.024121019145962826,
                        -0.24489450910332666,
                        0.09986491456898823,
                        -0.18002376037568735,
                        -0.035271859487839036,
                        0.10702490026370157,
                        0.03247940790844356,
                        0.06136852938434084,
                        -0.12184538862445352,
                        -0.12878768549536865,
                        -0.0396279044745503,
                        -0.15024832758394252,
                        -0.11812135225900804,
                        -0.27820385288895716,
                        0.197333224785017,
                        -0.1624584165961479,
                        -0.18697544211119704,
                        -0.10927066293193338,
                        0.015346335943286512,
                        -0.07611299230751514,
                        -0.11193505699832201,
                        0.22610951868289705,
                        0.04782896444566404,
                        -0.1209807385347279,
                        -0.17162500174455575,
                        0.31863234369639326,
                        0.10356953119316172,
                        0.18287308991429846,
                        0.12039596153648716,
                        -0.20531968811006646,
                        -0.028834474765369822,
                        0.21380635561488087,
                        0.1435043657362934,
                        0.2068380536314201,
                        0.22761937340413596,
                        -0.24417565186507165,
                        -0.2246014157143901,
                        -0.1583375254106734
                    ],
                    [
                        -0.21369068392635512,
                        0.12851684749781012,
                        0.0758884383272492,
                        -0.2068751836275119,
                        0.3313999899470235,
                        -0.0004151947053703696,
                        0.04951173272363941,
                        -0.05969497880955009,
                        0.001446211970110356,
                        -0.13089408148443746,
                        0.16776258386251588,
                        0.13972679505174437,
                        0.1311709625455334,
                        -0.19499552240494028,
                        -0.27949384010044276,
                        0.16760847116443386,
                        0.16827225484588834,
                        0.21496571224806593,
                        0.18232474288989514,
                        -0.19031382838361313,
                        0.12749389069788686,
                        0.0773058725765901,
                        0.2208738124373406,
                        0.23500647427303228,
                        0.0293097036838672,
                        0.19061500215515492,
                        0.18121443448459787,
                        0.16621370555084497,
                        0.30358460227473516,
                        -0.07114783707481083,
                        0.07098408587599696,
                        -0.09301645672303696,
                        0.010865102169016316,
                        0.2569212059685319,
                        -0.15552326133333422,
                        -0.04811879481638549,
                        0.11445698661851844,
                        -0.20697388214406287,
                        0.09665848016354528,
                        -0.17264796237606633,
                        0.2542689826145513,
                        -0.060575309927517536,
                        0.030122342793318047,
                        0.12182391448483759,
                        -0.003123564930829544,
                        -0.1500958822689845,
                        -0.0008853307446413106,
                        -0.07145899188753164,
                        -0.09413048318137615,
                        0.11594094706751838,
                        -0.03187938224961695,
                        0.27238784142492956,
                        -0.2415346006229002,
                        -0.024252871407694058,
                        -0.12337749383659408,
                        -0.01040940212289218,
                        0.16707700023983413,
                        -0.025690824376478502,
                        0.271738373584221,
                        0.02658531675356254,
                        -0.10706715166932676,
                        -0.16203993023593635,
                        -0.2648261883362171,
                        0.06050227084556788
                    ],
                    [
                        0.19842219816780904,
                        -0.2234606580226445,
                        -0.17292813939966054,
                        0.29068368257629784,
                        -0.09813738672086254,
                        0.11456194893981973,
                        0.19933830582840012,
                        -0.03579510386250852,
                        0.10539073606800509,
                        0.16214777225107488,
                        0.2022604799537478,
                        -0.06470532241113533,
                        0.18143735688176807,
                        -0.13743716232350145,
                        -0.28547869059328995,
                        -0.21676465580396537,
                        -0.02048467076249047,
                        -0.035314181903688735,
                        0.21373886448334423,
                        0.014153209219423923,
                        -0.1310561216528654,
                        0.275335114287845,
                        0.1462498689887047,
                        -0.21298813755409296,
                        0.024977074734437884,
                        -0.17353030832655175,
                        0.13051509284982152,
                        -0.20646056114899194,
                        0.20313025939474103,
                        -0.02389389270662639,
                        0.1399231522131873,
                        0.09047965972926923,
                        -0.025355945930569723,
                        0.06515597547738192,
                        0.06740941743038908,
                        -0.000670320132716141,
                        -0.10198508156310597,
                        0.25695303496756156,
                        0.19107676383557698,
                        -0.2806600394355167,
                        -0.014366043941996759,
                        0.04136383747865077,
                        -0.22211187021724588,
                        -0.05897477889480333,
                        -0.24661961227773993,
                        0.039456092977893695,
                        0.02618771996027819,
                        -0.19803372284279686,
                        -0.2198924614568583,
                        0.04733428367963789,
                        -0.23868500992095404,
                        -0.16381808923840382,
                        0.0842651024944686,
                        0.1676979952718149,
                        0.06915347525899147,
                        -0.21541465426487866,
                        -0.046031928053428345,
                        0.19300760353118648,
                        -0.046095181248170254,
                        -0.11256240261556397,
                        0.2987047010134627,
                        -0.06489212236738842,
                        -0.0526777774867528,
                        0.125402038956144
                    ],
                    [
                        -0.07544157014654113,
                        0.04778169985067353,
                        -0.1693913972326213,
                        0.1853714606838499,
                        0.0700231967545977,
                        0.16454012891564304,
                        -0.1239591397087572,
                        -0.0941458722406248,
                        0.22487157567661026,
                        -0.2588434118544776,
                        0.1356162322563624,
                        0.25121128735410014,
                        0.032001843718312516,
                        -0.1787457595866278,
                        -0.011734668474328481,
                        0.15144916384073007,
                        0.07382086430613283,
                        -0.008596552054242701,
                        0.12315290737560171,
                        0.1615398964762887,
                        -0.21260689985661632,
                        -0.04862955653397803,
                        -0.03049649567816737,
                        -0.06251618554602068,
                        -0.27380694675136796,
                        0.02788888996267551,
                        -0.038229004815657774,
                        0.18166235291036384,
                        -0.044736494248840755,
                        0.005798575372603242,
                        -0.10872188267455893,
                        0.2142320798284998,
                        -0.11822214441225429,
                        0.2962064481867428,
                        0.03439105347630771,
                        -0.1817989371646485,
                        -0.15127367230853955,
                        0.08475960219825229,
                        0.10058213956909538,
                        -0.16955410789151798,
                        -0.24676326388689968,
                        0.07206192076970176,
                        -0.05710697096780782,
                        0.02431275668640287,
                        0.19341028925201206,
                        -0.15524933297352717,
                        -0.1774378427291658,
                        0.16269123098648278,
                        -0.21812422332841963,
                        -0.023905441373422088,
                        0.07530427812566759,
                        -0.10639992401071577,
                        -0.23589866553811534,
                        -0.010002660951046193,
                        -0.05162217444098604,
                        0.17088387945379918,
                        -0.2774780420377484,
                        -0.09654467188598377,
                        -0.34186985264909303,
                        -0.09305660631143099,
                        -0.05118029144658802,
                        0.2150172750628852,
                        0.24308404651861232,
                        -0.10419579931565437
                    ],
                    [
                        -0.04816148128462842,
                        0.2852097577928457,
                        0.32420876875456156,
                        0.05118222832422876,
                        0.0938762235080134,
                        -0.2061740255809123,
                        0.1884207725081789,
                        0.10878908070236808,
                        0.1740149720870579,
                        -0.25176976479570623,
                        -0.26404608401713375,
                        0.3010377325662762,
                        -0.10705478314049652,
                        0.11493395448749627,
                        0.16387256086417076,
                        -0.230620268898889,
                        0.09486072849719701,
                        0.10218824819370234,
                        0.2672785614967954,
                        0.001830201837915102,
                        -0.35577765384146715,
                        -0.08705278747770229,
                        -0.1289561042374141,
                        -0.05827368974470393,
                        0.0899944916016098,
                        -0.13779099875364173,
                        0.048090136951026936,
                        -0.21814801320681365,
                        -0.1556089981895631,
                        -0.3264204070180186,
                        -0.05877121961480773,
                        0.2419933141489922,
                        0.1702753184326708,
                        -0.08994436622462171,
                        -0.3634670493682782,
                        -0.13182008348205282,
                        0.3248805310266641,
                        -0.3216142692142553,
                        0.17042104918958584,
                        0.1177952917527564,
                        0.016211815234404438,
                        -0.04849254286639337,
                        0.0866061429937873,
                        -0.020619037552938244,
                        0.24971692768080866,
                        0.18946415255795876,
                        -0.08680755229793982,
                        0.05738124578908897,
                        0.02214947107961425,
                        -0.3150155344666427,
                        -0.1457267163480712,
                        -0.29139921997317464,
                        -0.04279896648486939,
                        -0.21579439433535183,
                        0.1294131340455377,
                        -0.21314833737437056,
                        0.25481786376867005,
                        -0.007289117353961463,
                        -0.14648308816504613,
                        0.14589018324433495,
                        0.0035829610839654673,
                        -0.14072994509339604,
                        0.19520581589581082,
                        -0.006524834968364742
                    ],
                    [
                        -0.31340641757877175,
                        0.26285513132090577,
                        0.04281582238994795,
                        -0.16705050538144955,
                        -0.24284459517891818,
                        -0.01937729076727046,
                        0.0277057641357084,
                        0.13170012708131543,
                        -0.21893374904724755,
                        -0.13724251537445759,
                        -0.2493308627582297,
                        0.09720369392517997,
                        -0.1064293339716161,
                        0.22349025645358106,
                        -0.04252743056522857,
                        -0.3156167067193675,
                        0.26065664981615205,
                        -0.16882044025977935,
                        -0.04272234989917899,
                        0.1689553217478416,
                        -0.208506378337482,
                        0.05066322961857642,
                        0.12354425701454544,
                        0.21246390168373652,
                        0.012718061822347863,
                        0.09233465445770653,
                        -0.2430334188028223,
                        0.12321307605034292,
                        -0.2136539096630338,
                        0.09985866335007337,
                        -0.31892158950989424,
                        -0.03061141767363464,
                        0.12693533253677042,
                        -0.05254563558864419,
                        -0.11645869562672255,
                        0.02556326146810393,
                        0.3129539837864886,
                        0.1409503783769505,
                        0.0013423963851904698,
                        -0.140055266495525,
                        -0.10886179080628261,
                        -0.017166811854212663,
                        -0.17338776767316796,
                        0.07508350249052428,
                        -0.1495189691246397,
                        0.11114144848729642,
                        -0.054424112290312604,
                        0.31087229326774013,
                        0.039240728252627706,
                        0.0885401515023132,
                        -0.08094739260030076,
                        -0.0031213227834929382,
                        -0.1269229982164486,
                        -0.25417412226255315,
                        -0.03460580830604611,
                        -0.1482466594913778,
                        0.27303662902755926,
                        -0.08936209743009127,
                        0.045796589714227606,
                        -0.25595012655331584,
                        -0.28504550224387565,
                        0.1692811460270493,
                        0.006147922857255155,
                        0.01930508105830453
                    ],
                    [
                        0.02898748997969979,
                        -0.20803518130480592,
                        0.2550445007095636,
                        -0.12062866007646225,
                        -0.2715306006850261,
                        0.03625208121046434,
                        -0.2650300911680941,
                        0.022880234435782187,
                        -0.15327567389458546,
                        0.01406811647611844,
                        0.035434034014348505,
                        0.23062342916820638,
                        0.09767426073827017,
                        -0.2423009372238795,
                        0.05260687040630405,
                        -0.10896480667088797,
                        -0.020555344563124054,
                        0.08186449725532037,
                        -0.09807179126698239,
                        -0.21017701067361674,
                        0.13598571702229237,
                        0.11150956002100759,
                        -0.035905061380361016,
                        0.08962445715331124,
                        -0.13287433648529562,
                        -0.10374482303959211,
                        -0.2337421862497667,
                        -0.25293983722940294,
                        0.14129977006058161,
                        0.08034415724104271,
                        0.17654310451236263,
                        0.0005607180438288338,
                        0.10637208443251489,
                        -0.008159651716335804,
                        0.09816105879012843,
                        0.11081041695897137,
                        -0.13801841645308494,
                        -0.11454846078172104,
                        -0.15122523754587897,
                        0.08180177890032791,
                        -0.052212946152007805,
                        0.17816063261966905,
                        -0.2215510857779071,
                        0.14516194191396592,
                        0.006575580003644941,
                        -0.14953428967058816,
                        -0.23986173398408936,
                        0.14808689640438805,
                        -0.1367140664209689,
                        0.1451814378745099,
                        -0.16749392268076416,
                        0.2320815882111773,
                        0.004336122910209494,
                        -0.10274542762559838,
                        -0.2820501597231201,
                        0.14529705831870876,
                        -0.1765221462953122,
                        -0.0021195751586950366,
                        -0.09541093912818192,
                        0.17637552988163055,
                        0.23902078202302868,
                        -0.180041098604608,
                        -0.27002358571319507,
                        -0.11273154687406425
                    ],
                    [
                        0.05644912776751559,
                        -0.19028281180766948,
                        -0.13373525235518618,
                        -0.18662736409886718,
                        -0.004007226595286478,
                        0.011705044617259403,
                        -0.2507010317386437,
                        0.19302039222354905,
                        -0.20371325276940597,
                        -0.14617996532531566,
                        -0.10694312216592493,
                        -0.20040392815264152,
                        0.07824068441221267,
                        0.22640187252878985,
                        -0.17146212467763358,
                        0.17903017723657566,
                        -0.025338318357200504,
                        0.16001189174205582,
                        -0.23770214708995954,
                        -0.12765452111074424,
                        0.06499083952787611,
                        -0.10493071092012206,
                        0.18771318883502716,
                        0.10824749628803587,
                        0.03161928680653783,
                        -0.024592247607709027,
                        -0.1477695035298643,
                        -0.17268589157669037,
                        0.13846520646520666,
                        0.1280856905496297,
                        0.13560072642944704,
                        -0.19625373099773036,
                        -0.12232855523006572,
                        0.12504328955829355,
                        0.16757669529276875,
                        0.13662042815385234,
                        -0.11726925996877678,
                        0.059880793472490874,
                        -0.020974003490718936,
                        -0.07848938337023116,
                        0.05107695574965035,
                        0.17726189933723724,
                        -0.06441935057022499,
                        0.25133684279066915,
                        -0.22783690319111083,
                        -0.030334688877879126,
                        0.21022804366944564,
                        -0.024123289729937984,
                        -0.15806340504010413,
                        0.2373457393093623,
                        -0.2276170668806039,
                        0.27468907656844327,
                        0.07869176551469063,
                        -0.12124578120335233,
                        0.0613679093164989,
                        0.06423770714986443,
                        -0.19757861999824494,
                        -0.14831011912315184,
                        -0.2378120674657457,
                        -0.10991186127794371,
                        -0.09007600016134673,
                        -0.06668577127678879,
                        0.14235285471432543,
                        0.027024156033207673
                    ],
                    [
                        -0.2689263339448478,
                        0.1908801799204225,
                        0.25036230710741914,
                        -0.020934184632415438,
                        -0.08316554103355318,
                        0.2003963828649664,
                        -0.10375508684679836,
                        0.3567682696271303,
                        -0.03653703049512144,
                        0.19547018562601032,
                        -0.13876856761552145,
                        0.10339417457988721,
                        0.42612553979250894,
                        0.09547847156766509,
                        -0.32616449484494237,
                        -0.09862042078195972,
                        -0.1004143432880388,
                        0.026983667302834503,
                        0.2389200210829138,
                        0.02159861013479869,
                        0.09387096965912009,
                        0.022494905842863587,
                        -0.12605164426981055,
                        0.02129550084131404,
                        0.2099865786799716,
                        -0.17877665753177002,
                        -0.06760039492141488,
                        -0.12718827000919025,
                        -0.10530111755673423,
                        -0.39492636455151037,
                        -0.032781391433500555,
                        0.360165143803696,
                        0.24776570240391071,
                        0.025453133062790793,
                        -0.05435729393824037,
                        -0.12687057191711956,
                        -0.05133705962086619,
                        -0.08993339700328923,
                        0.07207323519839808,
                        0.07903144419675381,
                        0.12144488508517258,
                        0.060854616953120555,
                        0.17265934645662145,
                        0.28625717983889215,
                        -0.08081907673425376,
                        -0.2364368034117844,
                        0.047109712062396614,
                        0.44046369703742566,
                        0.1595858627977645,
                        -0.2902435224123921,
                        -0.16387695675469766,
                        -0.31924561668347406,
                        0.21627301801991206,
                        -0.21826977104182654,
                        -0.11892699551820737,
                        -0.1749268102400573,
                        0.30851094130236834,
                        -0.09239818163359846,
                        0.20998804861894324,
                        -0.07285068536917576,
                        0.05417112394311078,
                        -0.16686556530076496,
                        -0.10510399761713753,
                        -0.13166118943078356
                    ],
                    [
                        0.06561571256340633,
                        0.007460721207898379,
                        -0.15085804540290199,
                        0.06985783821400551,
                        0.2882830361490048,
                        -0.03398747878721288,
                        -0.14646878364796734,
                        0.04454032112908835,
                        0.17276668220567887,
                        -0.16747277079781514,
                        -0.05452731661099766,
                        0.04446080849875974,
                        0.13690925202681015,
                        -0.17418573611742555,
                        0.2562131913245262,
                        -0.02067657010385106,
                        -0.16464552360310142,
                        -0.3330693243207493,
                        0.1571235671140298,
                        -0.09547008764646223,
                        0.04433308555155761,
                        -0.16728113178455187,
                        0.2773067925305318,
                        0.005660129980762096,
                        -0.037701281585118894,
                        0.23828115127451335,
                        0.19189119985898095,
                        -0.15412313293131288,
                        -0.22714772812428466,
                        0.30445651796156215,
                        0.16278629738536132,
                        0.0025334096979988292,
                        -0.1574550227790671,
                        0.010519663508295203,
                        0.2829472453750624,
                        -0.1388519341860717,
                        -0.12018018306243676,
                        -0.04588954587764894,
                        -0.12063836590799318,
                        0.11273779980563375,
                        -0.24136016851370987,
                        -0.09149216331692873,
                        0.14515668767215695,
                        0.02203634349488376,
                        0.20810708714947587,
                        0.2679778917541666,
                        0.21360644067988377,
                        -0.19152963157100278,
                        0.0666593204549285,
                        0.22526822582985565,
                        -0.11869194977473083,
                        0.3064287949793702,
                        -0.24194880161631896,
                        -0.1482297406654023,
                        0.012504131323971114,
                        0.23603164452927833,
                        0.055899070442101864,
                        -0.27136669318624174,
                        -0.06501510384468048,
                        0.05782486964856362,
                        -0.04974791112524753,
                        -0.15192669872692946,
                        -0.1458282278059722,
                        0.049219929820834174
                    ],
                    [
                        0.13077102108733707,
                        0.21403412443982608,
                        0.08317392193531453,
                        -0.1438968355785765,
                        0.05498443577835396,
                        0.15296975650901182,
                        0.17376617708647377,
                        0.128441871803701,
                        -0.04161946271307243,
                        0.20507682181887352,
                        0.009690527772168497,
                        0.32106932929363224,
                        0.1585586754356401,
                        -0.2464190398834346,
                        -0.23824832646239383,
                        0.17180966149880383,
                        -0.23140449118524695,
                        -0.2692043418039711,
                        -0.17652039778013495,
                        -0.12195631322028996,
                        -0.18080648048264233,
                        -0.10161526558945148,
                        -0.30208849521471537,
                        0.206298694034332,
                        -0.1278586114698348,
                        -0.18667615039253393,
                        -0.09787110933023181,
                        0.008600588278769264,
                        -0.06830696902813448,
                        -0.3472763753661587,
                        -0.2512788665184316,
                        0.0951625217516702,
                        0.11579152288715072,
                        -0.057676752294853514,
                        -0.10270947016184269,
                        -0.044428406094867944,
                        0.2241293321517805,
                        -0.05382504589381852,
                        0.20696047114574362,
                        -0.06345493381124727,
                        0.07931959101511024,
                        -0.16058324879502608,
                        -0.22427599255183112,
                        0.11008969766764837,
                        -0.0773752913376665,
                        0.03029547490661264,
                        -0.15134780176432025,
                        0.01996091621822374,
                        0.17254978488990574,
                        -0.3337420215563622,
                        0.13151141711940229,
                        -0.11003498808082929,
                        -0.2603183326076208,
                        -0.02951576261600213,
                        -0.13686486248162424,
                        0.0488642927458216,
                        0.2443352292361697,
                        -0.26683865871115636,
                        0.30020004001918377,
                        -0.1211278153542288,
                        -0.022424344418122275,
                        -0.0818746746080411,
                        0.1036714712188353,
                        -0.20900887609357371
                    ],
                    [
                        -0.2367815004803549,
                        0.1460789634465458,
                        0.1992256300817124,
                        -0.31728742732571924,
                        -0.21655696157033616,
                        0.15840359816621932,
                        -0.27609348828075014,
                        0.47233110052460514,
                        -0.22960932613389087,
                        -0.162466416918917,
                        -0.44234010458391554,
                        0.10812177733484318,
                        0.3033191957723189,
                        -0.04636615099605099,
                        -0.0349593663086022,
                        -0.19696988602625748,
                        0.02635195452389783,
                        0.02909012081366385,
                        0.3833196711722866,
                        0.03338228371273466,
                        -0.2677279540037609,
                        -0.0823312059177704,
                        -0.01264386779180726,
                        0.03566294491173638,
                        0.03184259409232776,
                        0.19239176712600287,
                        -0.1920578257849297,
                        -0.10292523614609493,
                        -0.2120880358511126,
                        -0.14161945454037986,
                        -0.07919626823075089,
                        0.19203925673533115,
                        -0.1571724034130601,
                        -0.4797129860554291,
                        -0.13829181470009372,
                        -0.2160756264459897,
                        0.1518707125438019,
                        -0.26978898088436126,
                        -0.23699696873088175,
                        -0.10581723924088259,
                        0.024330642574442257,
                        -0.009118169909039546,
                        -0.2714243199601896,
                        0.16306062637406993,
                        -0.17042937200218636,
                        -0.3546183690874107,
                        0.10989873482115314,
                        0.16420632770624455,
                        0.014304019173387892,
                        -0.2470707680583424,
                        -0.1445368978300599,
                        -0.10116979390201987,
                        0.15492675797639036,
                        -0.20360029358126303,
                        -0.20745405844579284,
                        0.011685562848317621,
                        0.2863543779316514,
                        0.18743684763035676,
                        0.07335244581780154,
                        -0.42965749008768456,
                        -0.27320491478714326,
                        0.013745646102252929,
                        -0.16371714237693044,
                        -0.23314193990979779
                    ],
                    [
                        0.2035021953621925,
                        0.15205999411541662,
                        -0.1191835730810734,
                        0.1065778671832201,
                        -0.15445689787510175,
                        -0.15763599190826952,
                        -0.10445577082809135,
                        0.188063406970018,
                        0.00821472246208027,
                        -0.13677378953657665,
                        0.06527088373985067,
                        -0.13876007348089892,
                        0.17719821417500012,
                        -0.24557554209584365,
                        -0.20317313159522338,
                        0.04895592438203331,
                        0.19406182764206248,
                        0.13769469150609892,
                        0.10826094304781912,
                        0.11282765845348491,
                        0.010962605342824429,
                        0.12004750735672927,
                        -0.1822510830771347,
                        -0.2512047242712962,
                        -0.2142798299534169,
                        -0.009839341508114885,
                        -0.15881901845592294,
                        0.04316958927716716,
                        0.06423727625869982,
                        0.10480296896506329,
                        0.15810398115226734,
                        0.14408886716838556,
                        -0.2304801215346843,
                        -0.23867412923555556,
                        0.12544818310938619,
                        0.09585164305801626,
                        0.1533885380481776,
                        -0.024562648089580964,
                        -0.19576508207214327,
                        0.07607933917522533,
                        0.12623376924018387,
                        0.08682974080966462,
                        -0.22115928076273345,
                        0.028946797364862293,
                        -0.12485664720355293,
                        -0.16839446328157895,
                        -0.22018138244995256,
                        0.15135396948537203,
                        0.2117383688892234,
                        -0.10446835118042229,
                        -0.10742791117584821,
                        -0.2310977159444703,
                        -0.23986000893071052,
                        0.06142453523835437,
                        -0.010348475912913352,
                        -0.0962077063237429,
                        0.34507197899235675,
                        -0.10690287761696268,
                        0.3409099484658155,
                        -0.07167681042027638,
                        0.166932211575719,
                        0.09775973644650443,
                        -0.1595929710015869,
                        0.021895392886597906
                    ],
                    [
                        0.29168809797177514,
                        -0.1879843335619472,
                        -0.0017819216623707293,
                        -0.07208061629426929,
                        0.27384172322842776,
                        -0.2805985403962144,
                        -0.051521493667985384,
                        0.06666558326877434,
                        -0.030003483282432186,
                        0.23758998296195014,
                        -0.01487922238715334,
                        -0.253863323965263,
                        -0.25636467324887685,
                        0.046132465719527005,
                        -0.19403544420097318,
                        0.017984404164180845,
                        0.16047653759509026,
                        -0.04726007257954734,
                        0.14708238065141577,
                        0.045923265547600955,
                        0.27203508673796833,
                        0.17939928873725322,
                        0.1683140131882458,
                        -0.2415160770666199,
                        -0.04360833051698725,
                        0.13404963382348292,
                        -0.015485203728201342,
                        0.20187728740858588,
                        0.20419331593789655,
                        0.17312607606305558,
                        -0.16465379944491523,
                        0.1743468815076774,
                        0.15455020268226077,
                        -0.15369364946609965,
                        0.14151868147986385,
                        0.053146708038691315,
                        0.14699664816721092,
                        0.10894250159809717,
                        -0.13091771783893721,
                        0.10437433613713987,
                        -0.011802809353329453,
                        -0.30247731975339986,
                        -0.21896141664284582,
                        -0.03906532153098557,
                        -0.07613245643447306,
                        0.0787549836723216,
                        -0.134548940179858,
                        -0.044342468851844265,
                        -0.2745709121050638,
                        0.014300627059760705,
                        -0.2426180158616671,
                        0.03429570558591184,
                        0.001180851558067769,
                        0.24555691004709568,
                        -0.260159526153551,
                        -0.1861119540653615,
                        -0.13816760285664026,
                        -0.1013978836787866,
                        -0.33283674030551486,
                        0.048637591051991766,
                        0.2162906189988374,
                        0.015322510132002032,
                        0.16036437571013226,
                        -0.18550379467715356
                    ],
                    [
                        0.012787580883496574,
                        -0.08919997466911272,
                        -0.010028823540266959,
                        -0.22757004121670443,
                        -0.002866226522433599,
                        -0.15094525294913008,
                        0.17304283441170926,
                        -0.1888011640173115,
                        -0.14702940576881085,
                        0.21573247229894144,
                        -0.18099468414465825,
                        0.025580442391960643,
                        -0.0636567336820191,
                        0.08014840807538065,
                        -0.283087453446932,
                        -0.011367738209560456,
                        0.1990227157136273,
                        0.2412107333043476,
                        -0.06409403222640309,
                        0.13191711583281657,
                        -0.13355931317681444,
                        0.17029015612170353,
                        -0.2762869529465254,
                        -0.12795773861732357,
                        -0.048424909039912846,
                        -0.06812794414873365,
                        -0.022517047438623407,
                        -0.1451301356363539,
                        -0.13175686008329737,
                        0.08854780331404802,
                        0.1326469959338551,
                        -0.11178346301356941,
                        -0.09760096621407174,
                        0.231238281456724,
                        0.17949437269831253,
                        -0.0879487620287161,
                        0.1304950596178374,
                        0.03823125629081154,
                        -0.24342198377260013,
                        -0.02242689186255853,
                        -0.02063933351542658,
                        -0.10801983734649184,
                        -0.08542415104377286,
                        -0.23696966011859774,
                        -0.052608859918346934,
                        -0.06690637561984257,
                        0.16478709385218587,
                        0.20002723824668625,
                        -0.1357714128368323,
                        0.09783121874012249,
                        0.11951485681443325,
                        0.27667979794200215,
                        -0.1964386512988927,
                        0.27125518224059236,
                        -0.09131995024225811,
                        0.010708030333119678,
                        0.2189155887835368,
                        -0.14850287880067214,
                        -0.025163855240840523,
                        -0.0809697246308509,
                        -0.1645653438661777,
                        0.2507131512116142,
                        0.2828392458165317,
                        -0.0032458777223980393
                    ],
                    [
                        -0.007531365458653461,
                        0.233843469592435,
                        -0.0951404855993034,
                        0.041763081291628534,
                        -0.20799627655296285,
                        -0.11677380786232222,
                        0.12466047075858115,
                        -0.061228816938361935,
                        -0.22924667042258481,
                        -0.20164550057261893,
                        -0.010308484193407309,
                        0.12527953216370813,
                        0.1382218650749498,
                        -0.15693084143070515,
                        0.24575664293211974,
                        0.025827813586944793,
                        -0.2154829650003451,
                        0.08778589473805103,
                        -0.26852251654905296,
                        -0.022982734206490996,
                        0.19558309828159876,
                        -0.1403775984352655,
                        0.17502583491364782,
                        -0.16825414904225724,
                        -0.031934914239117033,
                        -0.013900889766787074,
                        -0.011667400442154573,
                        -0.19044277580221702,
                        0.04387345670403645,
                        0.11120511727209202,
                        0.05169810311086717,
                        0.10029656866163991,
                        -0.17587335401789922,
                        -0.02396669890429554,
                        0.11027891558496883,
                        0.15544079436802505,
                        -0.1275982366639044,
                        -0.05503242037702745,
                        -0.20535050888407688,
                        -0.23877977439542722,
                        -0.1257937805286702,
                        -0.17484130170623638,
                        0.1555591902434196,
                        -0.3745751579719994,
                        -0.13236750973429634,
                        0.10919749969667822,
                        0.20881928644447295,
                        -0.21535252958805412,
                        -0.09993012507275373,
                        0.03358965084134067,
                        0.02110444794770472,
                        0.11411795815889343,
                        0.008080711471834201,
                        -0.09028137170257591,
                        -0.3021574804996005,
                        0.1956005298000818,
                        0.08101131108261206,
                        -0.11779103185562702,
                        0.18493558304516622,
                        0.12526745516636567,
                        -0.08689897950946125,
                        0.026389351858052246,
                        -0.03267371006250716,
                        -0.0949892447494175
                    ],
                    [
                        0.20749735961877463,
                        -0.02683584952415836,
                        0.14912645045238496,
                        -0.03141783372493756,
                        0.1956213580996729,
                        -0.18868698683329646,
                        -0.21008556963602856,
                        -0.1562134332782296,
                        -0.07929485668336717,
                        0.2213808731122848,
                        -0.056833548776872925,
                        0.021175287891746823,
                        -0.07892177646153554,
                        -0.08012599301420217,
                        0.05587506617139148,
                        0.18801305626124656,
                        -0.03276046286572041,
                        0.10441902409748256,
                        -0.1846540882001885,
                        -0.1354136854646083,
                        0.24535103352260054,
                        -0.03639649114702922,
                        0.0072999350083186474,
                        0.13658734807188366,
                        0.11254463802605492,
                        -0.2177119927296835,
                        -0.2715053396364875,
                        -0.09221680706609883,
                        0.07709974455123965,
                        -0.049110810891184124,
                        0.1024599988620875,
                        0.08387405885120608,
                        -0.03684573222811227,
                        0.03181137000213841,
                        0.18386310784627294,
                        0.22606378348913211,
                        -0.0690385680389021,
                        0.2736056091970956,
                        -0.05530443193762378,
                        -0.037624966213244376,
                        0.14254738869173791,
                        -0.07267231626548065,
                        0.0013154962659533422,
                        0.07063985257497568,
                        -0.25059062761651757,
                        0.09284649350526002,
                        -0.21387949770105277,
                        -0.16479160832789294,
                        -0.025649521422308266,
                        0.10008688974908032,
                        -0.20624201538907397,
                        0.024693370656962355,
                        0.0837525630064235,
                        0.06208885297817951,
                        0.17545785142963732,
                        -0.10721220397897793,
                        0.24822764347000598,
                        -0.29448878492359115,
                        -0.3203133432837895,
                        -0.193667296303549,
                        -0.1810086344692483,
                        0.13120403397306818,
                        -0.06977508211461864,
                        0.02005216422627231
                    ],
                    [
                        0.02676849732515945,
                        -0.019202343713422037,
                        -0.11296691149045845,
                        -0.06490293919188507,
                        0.1117822122721473,
                        0.010540763257374557,
                        -0.1349077163839523,
                        -0.06934369351891918,
                        0.06417034894931661,
                        0.2113328487941234,
                        0.11792271112943192,
                        -0.002568776188020204,
                        0.021121249333826184,
                        -0.08092931835828795,
                        0.2155793108599445,
                        0.3515581922944646,
                        -0.04315623056530755,
                        -0.18373594652003225,
                        0.041340622434018745,
                        -0.00413924127992904,
                        -0.09754828969424216,
                        -0.05883966656144246,
                        -0.08762660437404612,
                        -0.23769305985197545,
                        0.15564304906142415,
                        -0.2666825258635723,
                        0.05912278321800859,
                        -0.11085435208345273,
                        0.019668336759059685,
                        0.17446899794574605,
                        0.06923758986133792,
                        -0.09543179148560219,
                        -0.06788293789637229,
                        0.32212751520636357,
                        -0.011068411469645446,
                        0.039597874344105374,
                        0.08773744931328997,
                        0.030752118530821243,
                        -0.07332924268128266,
                        -0.014162967835755534,
                        -0.09678973289576072,
                        -0.028523186910292972,
                        -0.04240202919730001,
                        -0.3362504998594513,
                        -0.14174460052956722,
                        -0.09159576390287702,
                        -0.004807349478905709,
                        -0.12859607886376773,
                        -0.21682049328766248,
                        0.3180729810608663,
                        0.24966018945498625,
                        -0.010568517018996372,
                        -0.014671050387688235,
                        0.3497949042601419,
                        -0.05876920108789956,
                        0.02805011669876717,
                        0.18769426683165882,
                        -0.2609527797145905,
                        0.049330388563045835,
                        0.09779348942986563,
                        -0.03594812123962857,
                        0.025021712020468045,
                        0.10033788505962697,
                        -0.05695636923033288
                    ],
                    [
                        -0.20766831312046383,
                        -0.16344254100687916,
                        0.11835341148124304,
                        0.03482558884225261,
                        0.08500967104300414,
                        -0.1541421530316062,
                        0.19112198316330042,
                        -0.03521854818545302,
                        0.12464914543720212,
                        -0.19287563328078516,
                        -0.23145275557427467,
                        0.09479107730690184,
                        0.13461589332761725,
                        -0.12769360491669263,
                        0.11756238536472131,
                        -0.020346806944316127,
                        0.13078651463938842,
                        -0.046705143050079764,
                        -0.12062699862947185,
                        -0.04777443576095822,
                        -0.07470569133827232,
                        -0.16247803934329885,
                        0.034373234965346285,
                        -0.14573252586871846,
                        -0.0987542660838836,
                        0.0495318101605491,
                        -0.17904782107136416,
                        0.024985394498768163,
                        -0.21949850277868596,
                        0.0629662742338007,
                        0.09305874071113339,
                        0.1351687268389238,
                        -0.1459177432717385,
                        -0.10944082745040506,
                        -0.18987822894782497,
                        0.053982557140558746,
                        0.06588207065664796,
                        -0.1709495255657181,
                        -0.2602728749387349,
                        0.09500256739554991,
                        0.1876174539014819,
                        -0.0967262082737362,
                        -0.2947226564625133,
                        0.1323143372806126,
                        -0.1173594885413234,
                        -0.3080605110933142,
                        -0.24728484397337896,
                        0.24998727049978345,
                        -0.02561827495222499,
                        -0.11445920085071597,
                        -0.027851405312597305,
                        -0.22353804073892902,
                        -0.20967501045724873,
                        0.06402621145487311,
                        -0.12523098596734736,
                        0.04528653009525779,
                        0.1614459349015787,
                        0.05869336199071973,
                        0.14734219474282523,
                        0.12175872676460826,
                        -0.24274890441377206,
                        0.062274416746363026,
                        0.02454511042228549,
                        0.19112684802870145
                    ],
                    [
                        0.10421834651860998,
                        -0.03449961308803326,
                        0.020409882557052485,
                        -0.3140457476198743,
                        0.204869271236889,
                        -0.13347605773430132,
                        -0.09640389519366128,
                        0.29190491327606244,
                        0.06559855278745652,
                        0.16492485462950618,
                        -0.38819327964740397,
                        0.10982558072118388,
                        0.24347012747144844,
                        -0.12148440236893801,
                        0.133902083067784,
                        -0.032052286102102624,
                        0.28232072977434436,
                        -0.1617694183063791,
                        0.3061330790663992,
                        0.1737437559922868,
                        -0.30553135385283997,
                        -0.22638171962216463,
                        -0.02711505179074471,
                        -0.13025178560502582,
                        -0.00023436919583178675,
                        -0.1168247181150775,
                        -0.2998359847523645,
                        -0.26290296547210085,
                        -0.18394605685581492,
                        -0.1261381403450939,
                        -0.40785654537223015,
                        -0.1173004047993057,
                        -0.18841812806653863,
                        -0.14364838756016576,
                        0.1615826809826962,
                        -0.0689885954235567,
                        0.24857177785605045,
                        -0.0548448454132171,
                        0.06691326436903527,
                        -0.0650769643040092,
                        0.032128397348281386,
                        0.1509072269602694,
                        -0.006572078025370319,
                        -0.09908985217852286,
                        -0.16641706282775912,
                        0.28113626227823607,
                        0.05249289271874491,
                        0.2700603094877169,
                        0.01047052439366831,
                        -0.16077698705957058,
                        -0.012692131903046328,
                        0.10150552925304142,
                        0.03797357831863278,
                        0.20107982118838671,
                        -0.22340105810460467,
                        0.049206878307805235,
                        -0.07462164988015248,
                        0.29428054766916295,
                        -0.013834558709086675,
                        -0.016513675331074052,
                        -0.2886235104224831,
                        -0.04263738338095177,
                        0.31018792029001124,
                        -0.23846029285848153
                    ],
                    [
                        0.0376835404885629,
                        0.05931476286956822,
                        0.21997865826706883,
                        0.04858038847420265,
                        -0.11161046228346358,
                        -0.23631237955143852,
                        -0.1852319629167336,
                        0.2053525591903676,
                        0.044978116724176787,
                        0.22888440482889394,
                        0.05064084885930842,
                        -0.1832480097540278,
                        0.11616020142016074,
                        0.25101602627597974,
                        -0.28946286207959027,
                        0.17907518171433187,
                        0.24133963028194763,
                        0.031278582248614815,
                        0.08311595310130773,
                        -0.0990766789844583,
                        -0.14089033398990375,
                        -0.1323981596444331,
                        -0.2376439898267632,
                        -0.16580296087758856,
                        -0.14380611761958062,
                        -0.10000672777394666,
                        0.14413908610479276,
                        -0.19010628775191807,
                        0.10356612338486772,
                        0.17042591086336226,
                        -0.12476936068568682,
                        0.3064535288550481,
                        -0.1903806177222162,
                        -0.1934394940993696,
                        -0.04765449653857607,
                        0.10065062287308912,
                        0.08215814680856694,
                        0.1435537669475501,
                        0.1035026934943541,
                        -0.19816244231571595,
                        -0.05560504268392761,
                        0.07721924105680683,
                        -0.14566830699278174,
                        0.07922361092037275,
                        -0.11682170074123618,
                        -0.16967901468052077,
                        -0.2246126765173016,
                        0.21920223811423403,
                        -0.16073274160402481,
                        -0.19169404343293284,
                        0.1741445730363882,
                        -0.008174214783138596,
                        -0.023109097804020193,
                        -0.10622517008391257,
                        -0.020495027481519445,
                        -0.1748240488169818,
                        -0.2298005244981487,
                        -0.023462359140709748,
                        -0.15593027798860756,
                        0.036090260524354635,
                        0.006466015989369579,
                        0.13711795444676944,
                        -0.08045512646999131,
                        0.16618636551132035
                    ],
                    [
                        -0.365685133351225,
                        -0.06472917519577161,
                        0.267302708821388,
                        0.09694991251858605,
                        -0.07358515392589632,
                        -0.20901054182043666,
                        -0.23447760431595668,
                        0.23909338368102412,
                        -0.1316966587849674,
                        0.21205782555473343,
                        -0.09804043358377694,
                        0.14062128798441179,
                        0.33111489827891016,
                        -0.2209512721773797,
                        -0.21687853805672358,
                        -0.30046541274876065,
                        0.08971274199717394,
                        -0.16692737578789507,
                        0.11772901358424928,
                        -0.13164076299584757,
                        0.010973825070305488,
                        -0.26662612879512015,
                        -0.11551433504642887,
                        -0.07322716654985384,
                        0.1516543503488652,
                        0.19750505571521615,
                        0.07158837858735852,
                        -0.04332046435124738,
                        -0.2072677005503024,
                        0.017334386861534153,
                        -0.27809589885920805,
                        0.15570831006764727,
                        0.17774863818691633,
                        -0.3287060791511976,
                        -0.12280909056533651,
                        -0.31949079378050077,
                        0.1119135011919472,
                        -0.08129112172566635,
                        -0.2075112853086465,
                        0.08588174710467122,
                        -0.14331131979981435,
                        0.1005231723396769,
                        -0.30133125569257,
                        -0.08471471350415692,
                        -0.012574621003384152,
                        -0.03991888146421089,
                        -0.016695387485741536,
                        0.10388879174319189,
                        -0.03003100459456113,
                        -0.3265643944099667,
                        0.0001570777931937939,
                        -0.2693554359999786,
                        -0.13216446452819278,
                        0.025358574499351878,
                        -0.04471102569475652,
                        0.08950898433716431,
                        0.18300905630613284,
                        0.03053809960907157,
                        0.3162899554851551,
                        -0.1788243031522807,
                        0.17076163588062523,
                        -0.034193963644324255,
                        0.044496613940737666,
                        -0.17515472372706595
                    ],
                    [
                        0.060117558986067486,
                        0.28778243434720224,
                        0.25620672063676064,
                        0.25912314033031203,
                        -0.3064738176138336,
                        0.01819750888503754,
                        -0.1487402270773536,
                        -0.14459844341261976,
                        -0.24518566261795632,
                        -0.2353956803997483,
                        -0.24174551965675786,
                        -0.06398530172886875,
                        -0.08230655714311687,
                        -0.173421678470941,
                        0.03621537142078785,
                        -0.3059806213930396,
                        0.1635482937844689,
                        0.07380864631933519,
                        0.2515524439585841,
                        -0.15800079646968201,
                        0.12874175259547108,
                        0.10690700699232387,
                        -0.1585099865111249,
                        0.024109300270160672,
                        0.03864356439365844,
                        -0.049139671395639004,
                        -0.1659381934389709,
                        0.0763626506152751,
                        0.1615223253107117,
                        0.10582863848581603,
                        -0.029496438595232318,
                        -0.1217573669762456,
                        -0.18658123841855523,
                        -0.1874023439552765,
                        -0.03194326686554427,
                        -0.09390741987219371,
                        0.15226339827709096,
                        0.20619403496662062,
                        -0.07282430878711148,
                        0.08796628179899306,
                        -0.20661109228197438,
                        0.31504312967212855,
                        0.14429866056623183,
                        0.09343521211141866,
                        0.08212072295840193,
                        -0.09125369058393124,
                        -0.2501639889543454,
                        0.04796448190104427,
                        -0.2173903854257895,
                        0.03304106679459316,
                        -0.06135388109778639,
                        -0.28023439039085307,
                        -0.19919626739756932,
                        -0.048339434134466654,
                        0.10995996916048306,
                        -0.19752083036319762,
                        -0.09525710235903247,
                        0.23352349263174038,
                        0.06089579288945105,
                        -0.05617985109483309,
                        -0.25179578171990524,
                        -0.1365617309027417,
                        -0.30782717020020445,
                        -0.16540744471304397
                    ],
                    [
                        -0.20007686595727192,
                        0.04740625084075471,
                        0.2685472714544845,
                        0.03149991508928842,
                        0.10259529605249172,
                        -0.16113290474816302,
                        0.11392824755009394,
                        0.04490872744587805,
                        -0.12731921765166074,
                        -0.0972989824028704,
                        -0.10731526969391131,
                        0.16055687572846572,
                        0.06755866714638613,
                        0.006797517820920862,
                        -0.11473203939062382,
                        -0.07519965775849405,
                        -0.08596463840594315,
                        0.16034456225340762,
                        -0.11154482177844648,
                        0.13663707949156528,
                        0.17520573350898314,
                        0.10658468615930136,
                        -0.035840077126168435,
                        -0.1422303137276979,
                        -0.2303668751863112,
                        -0.016887183052283615,
                        -0.06748067895526826,
                        0.21056949713292403,
                        0.12610038514656455,
                        -0.2031690726358245,
                        0.1472263661524972,
                        0.0005468167749116508,
                        0.15792943735531706,
                        0.21771605948558934,
                        0.07531726942449433,
                        0.14309990048425356,
                        0.21848564456612318,
                        -0.16958990972003285,
                        -0.23113648768424794,
                        0.11495796879151549,
                        -0.1641300671356671,
                        -0.026009722155833706,
                        -0.2128289596165057,
                        -0.18593004733612564,
                        -0.196058163306944,
                        -0.21265564905267004,
                        0.10709554877912203,
                        -0.12143116661110881,
                        -0.060283119756854214,
                        0.056160616873133534,
                        0.03227543526974819,
                        0.026737289689321063,
                        -0.12639476019063497,
                        -0.16267212330305783,
                        -0.2186787197914918,
                        -0.09054161203248445,
                        0.10220282135111275,
                        -0.4255006539453606,
                        -0.22143957254128785,
                        -0.025046715148972276,
                        0.19832028313423708,
                        -0.08685042089367986,
                        0.2037569696676492,
                        -0.169216124610755
                    ],
                    [
                        0.09369832570878268,
                        0.11188182967021636,
                        0.15513830883056381,
                        -0.23984959163201222,
                        -0.13202399438895734,
                        0.16265717537302532,
                        -0.13712451637083217,
                        0.03408863568306011,
                        0.10386714149421211,
                        0.15412976243167978,
                        0.11805119709249491,
                        0.2705589907343881,
                        0.17588232256292508,
                        -0.2095929145488447,
                        -0.2253418503314926,
                        0.14805372617168824,
                        -0.1672714789802518,
                        -0.1558658902403169,
                        0.07470149719802086,
                        -0.13980962102123395,
                        0.03692289313297953,
                        -0.21489362502668427,
                        -0.367773957244587,
                        -0.17673850955633297,
                        0.11510561939995417,
                        0.0032124599110019076,
                        -0.005514410143356386,
                        -0.10934635680390517,
                        -0.22160721708078773,
                        -0.2186837648983268,
                        0.03602184131491338,
                        0.0684000181786815,
                        -0.030014410253222074,
                        0.11750796961315231,
                        -0.2026678934723881,
                        0.09830323065002924,
                        -0.06519606889061068,
                        -0.023355199232884205,
                        -0.19930661553950074,
                        -0.006198214129739115,
                        0.2389116245236787,
                        -0.030134857205850577,
                        0.1475888608401163,
                        0.18100681629537885,
                        0.18175229493965667,
                        -0.2329823802079584,
                        -0.14585474222362382,
                        0.018949129466838393,
                        0.16014729031770555,
                        -0.1477951703037423,
                        -0.13144457371230256,
                        -0.32209294407143985,
                        -0.13779166848829405,
                        -0.05885818377907244,
                        0.16259495844481542,
                        -0.15494275112036032,
                        -0.05426709786235788,
                        0.0641957208292331,
                        0.1999916808109453,
                        0.02839808738890273,
                        -0.006106355487807368,
                        -0.06210054436228213,
                        0.22387514829113875,
                        0.20104667585965488
                    ],
                    [
                        -0.03209470127298323,
                        0.07531580042574613,
                        0.30660429934631955,
                        0.08611670633246343,
                        0.10902383966082865,
                        -0.04499429952415307,
                        -0.24292247823827928,
                        0.2323527527491612,
                        -0.12111491257943327,
                        -0.16487620341017226,
                        0.15152498211179974,
                        0.2231568198448073,
                        0.23179463344273107,
                        -0.09523776203678788,
                        0.04704879513542359,
                        -0.011508514654855712,
                        0.1551057977123458,
                        0.005143860618246295,
                        0.14796798998109573,
                        -0.16847200322424585,
                        0.13057525339111206,
                        -0.07906589411833881,
                        0.0871632174577846,
                        -0.11973016085877144,
                        -0.22753048937209552,
                        0.08474581028411488,
                        -0.050339485584199345,
                        0.12984243133295173,
                        -0.13586736374756964,
                        0.14424914574370004,
                        -0.06113348924161629,
                        0.11065962062921748,
                        -0.09894683486178837,
                        -0.052698674723985456,
                        -0.15508999756365385,
                        -0.23213513447684872,
                        -0.14674569669568188,
                        -0.01931045219003629,
                        -0.1528735147208224,
                        -0.04561161905240455,
                        0.012011550624094593,
                        -0.08368838126876951,
                        -0.19477595141852158,
                        -0.027312520890159953,
                        -0.14382859104473228,
                        -0.13120368684502456,
                        0.10856198778531301,
                        -0.10787474456605278,
                        -0.15390557914471542,
                        -0.1668053287416112,
                        -0.004234033932647929,
                        0.18037218734568264,
                        -0.20405108557621188,
                        -0.23326714957815645,
                        0.05374847516907341,
                        -0.10653757310138823,
                        0.19830775820154659,
                        -0.2229862389239198,
                        -0.046942725088389876,
                        -0.23405223262690875,
                        0.07497244696874232,
                        0.058104671460133483,
                        -0.2355582818436976,
                        -0.0985608430592013
                    ],
                    [
                        -0.08567165270412502,
                        0.33037550305427504,
                        0.2684459204252589,
                        0.07246817029737952,
                        -0.3575680666772966,
                        -0.009109071304431168,
                        0.17754626743554677,
                        0.2624881224980745,
                        0.014913131069343055,
                        0.11609336894059964,
                        0.15994935330642404,
                        0.04800975614655809,
                        0.3216817006546444,
                        -0.14385116909261228,
                        -0.17417176449452287,
                        -0.1180259319144726,
                        0.14172437467177038,
                        0.01658994024994404,
                        0.14732548735503742,
                        -0.007327669854071489,
                        -0.22486341640960442,
                        0.1516200432327489,
                        0.09900582203805766,
                        0.07480113687239348,
                        -0.1248805764201292,
                        -0.15079779901387266,
                        -0.22974209981799298,
                        0.1828029738512067,
                        -0.23499589194164247,
                        -0.08257252174269239,
                        0.10039732864787752,
                        0.03319003967239336,
                        0.06005049667374629,
                        -0.3416831391760315,
                        -0.2724135623359266,
                        -0.14407125954915573,
                        0.3760168686884241,
                        -0.06263253241256687,
                        0.04334339172019213,
                        -0.13674740626363158,
                        -0.24228667070803728,
                        -0.06698893809768133,
                        0.11612100356852022,
                        0.2673098463894026,
                        0.00028795039584847415,
                        -0.07360945757838235,
                        0.1776439967304156,
                        0.13837659728283844,
                        -0.16525234761316,
                        -0.16949125156354578,
                        -0.10607887733804103,
                        -0.08639837269456187,
                        0.1373526743001365,
                        0.14669575344492553,
                        -0.11896866333889299,
                        -0.16321502059640788,
                        0.38220504603213734,
                        0.04045333531755925,
                        0.1735504909991083,
                        0.003673167490428728,
                        -0.06554968674073063,
                        0.16894764784519717,
                        -0.17091283090566012,
                        0.14829273820984706
                    ],
                    [
                        -0.22707553968990438,
                        0.22135607290343878,
                        0.1927078714762206,
                        -0.43851248896563516,
                        0.12021735043346236,
                        0.1927972368960256,
                        -0.12352998586860105,
                        -0.04186222145684351,
                        0.03331572817877643,
                        0.019657707368373703,
                        0.11892252030115609,
                        0.14011594750318207,
                        0.10976856144041794,
                        -0.023336788583023182,
                        -0.2812333482768248,
                        0.1766011116438816,
                        0.06700731648367429,
                        0.06729804067680822,
                        -0.03745461850131401,
                        0.06635290985945186,
                        0.08344306592188107,
                        -0.22538920745722807,
                        -0.15643943043711925,
                        -0.04154384891517135,
                        0.0724100129212862,
                        -0.22974182811013244,
                        -0.2103795589727208,
                        -0.016059429186599992,
                        -0.1217242654479592,
                        -0.2934305965215522,
                        -0.15391294449034393,
                        -0.11760145332783709,
                        0.1976739832054017,
                        -0.12586630836688145,
                        0.09553804090790201,
                        -0.018331569297512378,
                        -0.11124135962418999,
                        -0.3144336483172294,
                        -0.22432390151402568,
                        -0.15034762650081457,
                        -0.2764679501052916,
                        0.0003070027191255189,
                        0.1461586737339493,
                        -0.08602514097939516,
                        -0.047587649607309816,
                        0.015274722405614206,
                        -0.2267304259991884,
                        0.26880741674019737,
                        -0.19664295621203404,
                        -0.17294528505716966,
                        -0.15694226346028717,
                        0.10915847984638613,
                        -0.13141759727053612,
                        -0.21204626385892858,
                        -0.20830832368398164,
                        -0.0015829039156053937,
                        0.027322583121137483,
                        -0.07472696456814837,
                        -0.25189513002150604,
                        0.08300051207497751,
                        -0.04868481258223874,
                        -0.04560092432499652,
                        0.16142689640877678,
                        0.09799960295077524
                    ]
                ],
                "bias": [
                    0.17779737212314728,
                    -0.16023142846188426,
                    -0.1817721019699828,
                    0.18470581368426373,
                    0.07100139618622872,
                    0.02692977855653968,
                    -0.047948928727685476,
                    -0.17122509188630988,
                    0.0,
                    -0.005423171930676623,
                    0.16987678604861833,
                    -0.14675798069606102,
                    -0.1904108469017769,
                    0.0,
                    0.05756849927811243,
                    0.13777710095915072,
                    -0.207028084519184,
                    -0.020414844199553618,
                    -0.14046947118399583,
                    0.0,
                    0.19517951924883634,
                    0.18881159607516076,
                    0.12334674137073055,
                    0.0,
                    -0.030856388644321494,
                    -0.09853828538653389,
                    -0.04959453358214839,
                    -0.027685745168474912,
                    0.18817715266391932,
                    0.19686564359486616,
                    0.1754701933716732,
                    -0.10090315830910133,
                    0.0,
                    0.17651796256358368,
                    0.17356985221948373,
                    0.1739194610282802,
                    -0.1633757644214814,
                    0.12141194899201538,
                    -0.03603140481483674,
                    -0.003926932187208791,
                    -0.09889269294953221,
                    -0.025090731191937454,
                    -0.04845411692071166,
                    -0.048001782776526634,
                    -0.02692744014342227,
                    0.0604112021164128,
                    0.0,
                    -0.15704552888431822,
                    -0.030818486846223223,
                    0.1867773823877533,
                    0.0,
                    0.19178732001377577,
                    -0.03164141637392149,
                    0.18021870240957838,
                    -0.03196126463825041,
                    0.0,
                    -0.11961827807481391,
                    0.1070170181044437,
                    -0.1053443196952647,
                    0.12934408367521597,
                    0.20026115446295456,
                    0.0,
                    0.13579427537567118,
                    -0.04016899516113967
                ]
            },
            {
                "type": "FullyConnected",
                "name": "FCLayer_name",
                "units": 32,
                "activation": "TanH",
                "kernel": [
                    [
                        0.17863967214285126,
                        0.23333215057939258,
                        -0.15198590007500726,
                        -0.0833277590950407,
                        -0.1584616300470561,
                        -0.2780144992858582,
                        -0.07650003553929541,
                        -0.1481131529490299,
                        -0.04856289426111506,
                        0.178930556702246,
                        -0.30816915890075547,
                        0.21346790587338446,
                        -0.24731759736641556,
                        -0.06801620138106051,
                        0.10842691385438369,
                        0.056670688473625344,
                        -0.14685254976655895,
                        0.30244660695989734,
                        0.282931602088809,
                        0.16776256441463905,
                        0.1339040215532839,
                        0.16549512805463687,
                        0.12784836571158212,
                        0.253624498072461,
                        -0.26778807734494114,
                        -0.028039812175352372,
                        -0.2681230572413622,
                        -0.033555010259722774,
                        -0.2774579520368128,
                        0.16682837274580634,
                        -0.3345186662315979,
                        0.06952901709040162
                    ],
                    [
                        -0.2556378169364558,
                        0.02093297495743267,
                        0.24908199007756704,
                        0.3041648857784014,
                        0.25720849352929454,
                        -0.15260093864736513,
                        0.118654963349058,
                        -0.30455690480575914,
                        0.08508713798324474,
                        0.06173447592143163,
                        0.31511387768918603,
                        0.06266967190211185,
                        0.09945983908653282,
                        -0.032078144751767,
                        0.1168103069561585,
                        0.07169623023744842,
                        0.13668927282410667,
                        0.07145001044731873,
                        -0.008687986033025352,
                        -0.29779761365416735,
                        0.27696615331611135,
                        -0.2390388516129533,
                        0.11676719275046386,
                        0.12812427733598575,
                        0.2776708077130413,
                        -0.3182199265856027,
                        -0.0227533753413508,
                        0.0744976869228825,
                        0.30641027956151,
                        -0.30402368951477304,
                        0.20943948803582776,
                        0.024385174726181853
                    ],
                    [
                        -0.33541875526442433,
                        -0.2598760417840361,
                        0.32347195213898233,
                        -0.12292191614822846,
                        0.1332085591834806,
                        0.22633848686626534,
                        0.32803598029283043,
                        -0.20485108193824533,
                        0.316035620783547,
                        -0.1929513712233344,
                        -0.10240637702540738,
                        -0.03709798573914326,
                        0.2694343427949,
                        -0.142753445172152,
                        -0.2175966335099734,
                        -0.04548734879160233,
                        0.3062100835638725,
                        -0.056609542911728775,
                        -0.31868588990297697,
                        -0.1411159674814894,
                        0.05420234071220432,
                        -0.15801941054159638,
                        0.09274317005005543,
                        -0.37712326511487043,
                        0.19499565663016472,
                        0.04426533857152135,
                        0.36854342745072277,
                        0.1657292225615605,
                        -0.038099259054234245,
                        -0.19487172642285464,
                        -0.02844878317472295,
                        0.3358600083096186
                    ],
                    [
                        0.2808298022998672,
                        0.2921555778807029,
                        -0.47465952975557835,
                        -0.19516419069678778,
                        0.041487278115628294,
                        -0.3634021354527053,
                        -0.29954803352813425,
                        0.17545375163013924,
                        -0.4456140599405654,
                        0.06658598264051722,
                        -0.6199374821430312,
                        0.3617678297178028,
                        -0.3145324977293732,
                        0.06340974666801277,
                        0.16524853216888205,
                        -0.3152594125441434,
                        -0.4306371198760039,
                        0.3422617459629553,
                        0.5261893382568443,
                        0.2302431646229105,
                        -0.2516982323493534,
                        0.4527261698125521,
                        0.2680790732725644,
                        0.40425863179852306,
                        -0.08643649108169651,
                        0.2922956496927212,
                        -0.2104840192647309,
                        -0.08645562491936774,
                        -0.3442133706562638,
                        0.48710014009391517,
                        -0.09292955140180424,
                        -0.2173005521517138
                    ],
                    [
                        0.23468960412639397,
                        0.32814261199543543,
                        -0.2770056407829253,
