{
    "file_type": "Only weights",
    "model": {
        "type": "SequentialModel",
        "name": "MLP_42",
        "input_shape": 30,
        "layers": [
            {
                "type": "FullyConnected",
                "name": "FCLayer_name",
                "units": 64,
                "activation": "ReLU",
                "kernel": [
                    [
                        0.23845119512739063,
                        0.1239182612464777,
                        -0.1566091833847563,
                        -0.15751601225837952,
                        -0.03837008014117847,
                        0.2064981929230803,
                        -0.23205383689493922,
                        0.10298835648569271,
                        -0.2183312466302169,
                        -0.07997660321280346,
                        -0.027064903173924165,
                        -0.23248345717465582,
                        0.11478286914737272,
                        0.07066893405763097,
                        0.10197482822133094,
                        0.12424532894697121,
                        -0.14497920821389318,
                        -0.09132126846778955,
                        -0.22830167312830305,
                        -0.12260094664415386,
                        -0.014992603945331057,
                        -0.21154053013714263,
                        -0.09031008284196156,
                        0.03643345483695314,
                        -0.05784981875396696,
                        0.0070345103968243805,
                        0.013475843914555053,
                        -0.13260623938016106,
                        0.20916219738695366,
                        -0.03485788381117949,
                        0.09555467237754556,
                        -0.19956116549480246,
                        -0.23944802391774203,
                        0.14925883320472993,
                        0.16457830209286456,
                        -0.12486027532053484,
                        -0.11021310346661392,
                        -0.09748835339040596,
                        -0.20971112548673573,
                        0.1451040093899912,
                        -0.1456911910100487,
                        -0.07266506521720263,
                        -0.051401932302639244,
                        -0.12495747136855885,
                        0.16685848285168278,
                        0.10511777364642115,
                        0.09151690978194489,
                        0.075365351396163,
                        -0.14429621905171425,
                        0.03418068471613955,
                        0.021228781327230932,
                        0.060075306207572454,
                        0.20148724792432537,
                        -0.3454586533428774,
                        0.11975413830249496,
                        -0.1727237188486517,
                        -0.23008276245665554,
                        0.10473474578553202,
                        0.19293685513852277,
                        0.24257701395665998,
                        0.1594760308374771,
                        0.059590997313614974,
                        0.0870572016614769,
                        -0.09423225711220298
                    ],
                    [
                        0.1778573084929781,
                        0.04939959817763428,
                        0.23657039781673034,
                        0.2059461189352882,
                        -0.16591645745304678,
                        -0.0884236533845823,
                        -0.09039632405823839,
                        0.0540752734781603,
                        0.16092233365944947,
                        0.14732091508044245,
                        0.2562659021737571,
                        -0.09938392382021358,
                        -0.0269869440099837,
                        0.31918807692820184,
                        0.008102799376121942,
                        -0.06340076679439374,
                        -0.20113403597622648,
                        0.15851121990263028,
                        -0.040107223019040635,
                        -0.08939189408238199,
                        0.046637697371925566,
                        0.14418508788569895,
                        -0.1725182483516463,
                        -0.08936077370158098,
                        0.04571390755412392,
                        -0.2910021697337422,
                        -0.1283540752051838,
                        -0.221606786802466,
                        0.15516249476737234,
                        -0.11828786016140078,
                        0.2423830224477188,
                        -0.03383963221059548,
                        -0.15789888255580076,
                        -0.12653131282135033,
                        -0.09245137709759245,
                        0.16272078454235162,
                        -0.15409318364325988,
                        -0.18914271922794276,
                        -0.020427139710159685,
                        0.10796988615752699,
                        -0.17336880190766168,
                        0.0016149323500935513,
                        -0.2096795027720057,
                        -0.09331356059665015,
                        0.05288828950603537,
                        -0.19771185922300807,
                        0.03271896740930559,
                        -0.21761318300460505,
                        -0.09474190433289037,
                        -0.017823755450102965,
                        -0.15443291277943313,
                        0.1605788745040481,
                        -0.03156660225072247,
                        -0.0486709518610408,
                        0.043976915772204986,
                        0.19938424561071183,
                        0.0889536926757789,
                        -0.2670100771611331,
                        0.005937146144724427,
                        -0.06672239619034014,
                        0.08673825595573897,
                        0.05435998158867681,
                        0.03950983713000082,
                        0.08080810138668243
                    ],
                    [
                        0.1980462651003791,
                        0.0978853226974094,
                        -0.20133079002064677,
                        0.05597933966356106,
                        0.16354697369099028,
                        -0.20125509656239846,
                        -0.19560763792187702,
                        0.1430261546685918,
                        0.08721108720982432,
                        -0.06730212137981312,
                        -0.20746051991714928,
                        -0.07216371062252214,
                        0.02630904989357726,
                        0.09511281947484111,
                        -0.29849268911138027,
                        -0.07328098235010339,
                        -0.0699950094743111,
                        -0.030156172897232294,
                        -0.17924000374146754,
                        -0.22782797562089274,
                        -0.029701682477410105,
                        0.18687939589369118,
                        0.05196742054207211,
                        -0.08105162213933359,
                        0.22633511724550842,
                        0.049899601378590584,
                        -0.12478945927196772,
                        0.22612765492776865,
                        0.10774813769125151,
                        0.1863175255373446,
                        -0.21413291628633907,
                        0.0782547706286585,
                        0.20477268714802033,
                        0.15311595999612532,
                        -0.11508445183072621,
                        0.02764773915144454,
                        -0.1319124256481381,
                        0.20470520261745184,
                        0.1338705398996943,
                        -0.2761552545338347,
                        0.12656905586604472,
                        -0.09328979042156034,
                        -0.12915194909061645,
                        0.04156863106990709,
                        -0.025918131307713723,
                        -0.05113581516867311,
                        0.10612481081927953,
                        -0.10750139309464633,
                        -0.1078965746256461,
                        -0.05812756249472855,
                        0.17049781449181262,
                        -0.29214472110355,
                        -0.11254910827411957,
                        -0.25585092859527386,
                        -0.13993190781511153,
                        0.08419673114343086,
                        -0.09110992430576573,
                        0.016266660521055555,
                        -0.0922969302020634,
                        0.06078115817444366,
                        0.256947979464348,
                        0.14177427194638823,
                        0.07579336881964367,
                        0.3305303680646466
                    ],
                    [
                        0.09279275201885874,
                        0.13460398942038868,
                        -0.03987792307193168,
                        0.04198330763596119,
                        0.04182087018017877,
                        0.14443072857852093,
                        0.1932796970772097,
                        -0.01874708838942657,
                        0.18715458201064097,
                        0.21487404685964076,
                        0.016754125912129998,
                        -0.08899924278189233,
                        -0.20034358265252136,
                        -0.17603053707369065,
                        -0.0013629732930379801,
                        -0.18550184561112443,
                        -0.10481537398852873,
                        -0.1362211471736931,
                        0.02405699118329281,
                        -0.12498663037669322,
                        0.1663388121322662,
                        -0.18484342603914702,
                        -0.022245322434322284,
                        0.20130403571386654,
                        0.23331608624383993,
                        0.04240224669163193,
                        0.13265127708107213,
                        0.17524678950639788,
                        -0.28251824862653135,
                        0.20858189136377042,
                        0.21659900851232916,
                        0.060542408378187314,
                        0.08442545671199785,
                        0.017827661002079512,
                        0.057293845582327536,
                        0.14023033827934933,
                        -0.23212624024362336,
                        -0.28439803335591707,
                        -0.09778129902171698,
                        -0.12551228299334566,
                        -0.11101302665579635,
                        0.20075876424311523,
                        -0.0010727529625306797,
                        -0.17932110310070618,
                        0.0662385751479679,
                        0.02780853979934402,
                        0.1924205793062153,
                        0.02222187537579938,
                        -0.18163459128097303,
                        -0.039435361990930354,
                        0.16426308066593026,
                        0.03009066650417312,
                        -0.1189329051719549,
                        0.11645106971672604,
                        -0.06691058225917983,
                        0.2171528456330321,
                        -0.03398124658249285,
                        0.01734947315705341,
                        -0.13319794948355587,
                        -0.07350140020710262,
                        -0.09977175320786044,
                        -0.04753301855572434,
                        0.07306983412209078,
                        0.22067716598064657
                    ],
                    [
                        0.14233518510126664,
                        -0.17448989749603616,
                        -0.011307650352487259,
                        -0.1498796299415627,
                        -0.24521349953257016,
                        -0.032767700638263855,
                        -0.041888888390377466,
                        0.058952333300001804,
                        -0.19698593237038273,
                        0.2987322532090082,
                        0.14273561691766037,
                        -0.07662263186702734,
                        0.17369642378971356,
                        -0.18496703914054288,
                        0.20766632186280906,
                        -0.033116676979668996,
                        0.21236132963727067,
                        -0.20260495128305891,
                        -0.00587243628627597,
                        -0.24075886708247474,
                        -0.18052380484005387,
                        -0.11101982370607405,
                        -0.03860149060716496,
                        -0.12623798504881767,
                        -0.073252966105812,
                        0.16588099253565847,
                        0.01829490922608244,
                        0.0391070387205602,
                        0.022995779433355987,
                        -0.0842629873054444,
                        0.24998966007406787,
                        -0.03701429149907756,
                        0.016245456587763718,
                        -0.1992599411121509,
                        -0.05929166928477361,
                        -0.1456750920654327,
                        -0.1851965421903367,
                        -0.2286573855727306,
                        0.07430520374248734,
                        0.18223916441220284,
                        0.09492585442027063,
                        -0.1215353547769172,
                        -0.10847796854198931,
                        -0.16832173522853006,
                        -0.07608351308006497,
                        0.10545101565669518,
                        -0.1518324432556754,
                        0.24932112748614807,
                        -0.20346341579014254,
                        0.021458099707279184,
                        0.05790542510768862,
                        0.07890512746047725,
                        -0.10684527822196305,
                        -0.0009006560670270935,
                        -0.16418383711930434,
                        0.14383893210243925,
                        -0.18584580642044324,
                        0.13077932057054767,
                        -0.04587779577759339,
                        0.14672433404754978,
                        0.17515296487694434,
                        -0.007729748883721573,
                        -0.022023220701558672,
                        0.10391324450737802
                    ],
                    [
                        0.027609280486316955,
                        -0.06554261281515562,
                        -0.023398457579835587,
                        -0.2584185976569798,
                        -0.14882927699835874,
                        0.06968048165934305,
                        0.09758801441444608,
                        0.0014267071898244655,
                        -0.21369223250872532,
                        0.15225838984806614,
                        0.1275965503742689,
                        -0.1711787696789056,
                        0.21828557248885272,
                        0.060573379765600344,
                        0.11156450991083089,
                        -0.24271763948268724,
                        0.20369453798909093,
                        0.06773169159185621,
                        0.15634996284424815,
                        -0.13710192676446714,
                        -0.2187109466205173,
                        -0.2089305672593556,
                        0.18629502105237197,
                        0.19119842273584023,
                        -0.08090975857766743,
                        -0.24493047371403173,
                        0.10285007994522458,
                        0.11512943534351137,
                        -0.07284840650594666,
                        0.01408812865116095,
                        -0.224335359598635,
                        -0.14828466488289888,
                        0.16938829727822852,
                        -0.27424370682602994,
                        0.2532210298154723,
                        -0.19415471956041316,
                        0.07895555201190652,
                        0.18132923895449182,
                        0.02607728321334984,
                        0.15180067297361807,
                        0.13281014390158952,
                        0.27941132956080966,
                        -0.12479636263959079,
                        -0.050952638956990495,
                        0.13041647820813665,
                        0.18475155209180816,
                        -0.10247175628225329,
                        -0.06518856488577249,
                        -0.15453212380773157,
                        -0.01278020460217748,
                        0.1076550215808717,
                        0.14350189220130866,
                        -0.1215182577111347,
                        0.20159346278301363,
                        -0.17152421962129374,
                        -0.19067783211902484,
                        0.19271168542244427,
                        -0.22811787540309306,
                        -0.20964544293541382,
                        0.061701386391300614,
                        -0.08901053209790082,
                        0.03335930321628558,
                        0.23039202458610006,
                        0.14332140065549542
                    ],
                    [
                        -0.3252062825670297,
                        0.2291796816624892,
                        -0.1854262191138032,
                        0.2170436720895149,
                        0.08461430369604774,
                        0.0030438033432189002,
                        0.3369443964409635,
                        0.1013135192006013,
                        -0.011729645475926401,
                        -0.2989318449900863,
                        -0.13328838261229495,
                        0.04887120182766319,
                        0.12539782037035954,
                        0.15924460437207755,
                        0.0507260431448604,
                        0.015557012875643816,
                        0.010189982225063553,
                        0.13544016508815854,
                        0.003284968620297928,
                        -0.1986108856802107,
                        -0.04506645182345453,
                        -0.23488319171534308,
                        0.21621243229800788,
                        -0.11093954982393853,
                        -0.33372772250184185,
                        -0.27717813130173047,
                        -0.21910422152856107,
                        -0.13453570016362373,
                        -0.29373055675324833,
                        -0.09747327192237742,
                        -0.1563169194754827,
                        -0.053917255704913784,
                        -0.027545942833349702,
                        0.0854818045272782,
                        0.3014694155017309,
                        -0.11824394911080559,
                        -0.15313631280663798,
                        -0.09054315807243168,
                        0.15581338283322158,
                        -0.13503505102310337,
                        -0.24760307978447849,
                        -0.13776028866651338,
                        -0.188275714901171,
                        0.019729585772083492,
                        -0.21383551592802855,
                        -0.07872565384560584,
                        -0.12904070533769899,
                        0.04033419505176306,
                        0.22796756498445137,
                        0.09633565913858942,
                        0.3004632886555813,
                        -0.07513460005547797,
                        -0.057984666981491156,
                        0.2597284736280485,
                        -0.17460262763033207,
                        -0.033786436165442434,
                        0.0005285887589028815,
                        -0.2722009821879557,
                        -0.07749205545993518,
                        -0.31499675754230333,
                        -0.021439392733273808,
                        0.03222366496299253,
                        0.2513320896980736,
                        -0.1145228427953213
                    ],
                    [
                        -0.2811435152206405,
                        0.15989082770188812,
                        0.0726214489667978,
                        0.27020425453047436,
                        -0.3295288165593419,
                        0.11115987241696508,
                        -0.0274414002334705,
                        -0.059626147926814546,
                        -0.09524949045647624,
                        0.06270349408751316,
                        -0.08094351843601538,
                        -0.21269799063663755,
                        -0.09854928365709638,
                        0.255188830238725,
                        0.036989804062163296,
                        0.20100431332277907,
                        -0.2973462433967356,
                        0.19367161817951997,
                        -0.029411588008038114,
                        -0.02029844577550413,
                        0.17989485172158046,
                        -0.21984501219563,
                        0.034669132536300044,
                        0.14723863730704798,
                        -0.3344855308803011,
                        -0.012531422031826325,
                        0.09227258996855485,
                        -0.3001182527439526,
                        -0.12390693422135794,
                        0.3606248927423879,
                        -0.10212125436833247,
                        -0.09080274874165611,
                        -0.1710982497674128,
                        0.11122891470127402,
                        0.22195615658021312,
                        0.033016464051040514,
                        -0.20943985225381317,
                        -0.2137784928297458,
                        0.2098017006813188,
                        0.22096753265432292,
                        -0.18960866875154636,
                        -0.026297544022651848,
                        0.05312942660138505,
                        0.18436292822753692,
                        -0.3084797824044856,
                        -0.20269641155949333,
                        0.002185604135181627,
                        -0.2519834878436433,
                        -0.21028064691333712,
                        0.02485714165371131,
                        -0.13683809005928835,
                        0.18035588832716024,
                        -0.07590975597197991,
                        0.13809287591702946,
                        0.06138591796584432,
                        -0.08278765454436136,
                        -0.04904241840899198,
                        -0.20062550267254342,
                        -0.28294280107685665,
                        -0.008395438355447479,
                        -0.04676824153453342,
                        0.15489009291189382,
                        -0.06195239716465099,
                        -0.14237644198556423
                    ],
                    [
                        0.056655522140182636,
                        0.18792855530902103,
                        -0.1561092021285185,
                        0.11073928774072357,
                        0.07691099319802411,
                        -0.2350571599450221,
                        0.08773591735713708,
                        0.011070634592409851,
                        -0.05274729189833618,
                        0.0050491406961042365,
                        -0.2638746322575769,
                        -0.06156079747415413,
                        0.003287457939364282,
                        -0.1473450441410434,
                        0.22885379791588673,
                        -0.2287793374091378,
                        0.26739715673389364,
                        -0.07796798845857467,
                        0.25431938887326627,
                        -0.22839027958517014,
                        0.20065384752554305,
                        0.048849410247414383,
                        0.13340805873418096,
                        -0.2954034002845162,
                        -0.06956447730931738,
                        -0.09076480553859048,
                        -0.25980388011826366,
                        -0.08589551642231484,
                        -0.19489695232597642,
                        0.2074568183814757,
                        -0.07651209006718884,
                        0.25227868993625663,
                        -0.1617833989201417,
                        -0.12139866151236847,
                        -0.2183094354986212,
                        0.1754228626533197,
                        -0.15040378956122363,
                        0.152270127184144,
                        0.03138501883189828,
                        -0.10691253732015574,
                        -0.1471685773567175,
                        -0.18157662143435035,
                        0.05337370960659224,
                        0.011304966790427837,
                        0.16699588253824907,
                        0.2410527374205451,
                        -0.09864113279160956,
                        0.22070892513153115,
                        -0.08313796487813623,
                        0.10766421160352332,
                        -9.475431026198733e-05,
                        -0.21337213701531013,
                        0.08176582382172154,
                        0.2810656775040925,
                        -0.12312629023514297,
                        0.17739715708247838,
                        -0.1302585345263739,
                        -0.15395632740890075,
                        0.18680339592152237,
                        -0.1585123375467059,
                        -0.012371505175694408,
                        0.15361469978845202,
                        0.07753795713100706,
                        -0.2170278526592346
                    ],
                    [
                        0.11813213197923302,
                        -0.08487857046248833,
                        0.14359516276574805,
                        -0.0830945449986424,
                        0.19994795812021465,
                        0.1459129073200198,
                        -0.19608053142176468,
                        0.21296609067991848,
                        0.21733573550829718,
                        0.26072968349966535,
                        0.143291933923807,
                        0.0030656965633292788,
                        -0.020970652179047998,
                        -0.11062990805584787,
                        -0.11592813412694013,
                        0.20992366132859314,
                        0.045427414818628484,
                        -0.19148170635619782,
                        0.3124762317531239,
                        0.04084936252247573,
                        -0.2590360935278921,
                        0.08237379490866348,
                        -0.12950636352001915,
                        0.012966368339391025,
                        0.19471130471072093,
                        0.11495832364926115,
                        0.11361469874904283,
                        0.21888406168607993,
                        0.21817160928692605,
                        -0.23005484959067496,
                        -0.17907110385219757,
                        0.13546544293221288,
                        0.08931765061970384,
                        -0.1704375415935265,
                        -0.02795812097360332,
                        0.028424838275468416,
                        -0.014652871479162166,
                        -0.03443434760399081,
                        -0.07273007449843936,
                        -0.1782362599098795,
                        -0.03833949833927386,
                        0.27502756619329666,
                        0.20410765019314925,
                        -0.06179852767046499,
                        -0.029059599262957127,
                        0.1504813130212527,
                        0.010585655430259803,
                        -0.07309554613535864,
                        0.2822277356848188,
                        -0.19010275827926146,
                        -0.07725865315722429,
                        0.0665231522513213,
                        -0.004352182513800401,
                        0.10988986829630323,
                        -0.16679451690162175,
                        0.3061691059357439,
                        -0.2261004432298599,
                        -0.18077428519258687,
                        -0.22547465038949766,
                        0.23740437694007155,
                        -0.1993635821161894,
                        0.16015928313252914,
                        0.08946801800150428,
                        0.13550764593379744
                    ],
                    [
                        -0.0939820233957568,
                        0.22845985018878529,
                        -0.10006325440853209,
                        0.14072071462320287,
                        -0.07549599477086816,
                        0.07805986307126081,
                        0.18477236362745067,
                        -0.379267643501598,
                        -0.13287540008509452,
                        -0.10550135049441571,
                        -0.28205236475046563,
                        0.15838974784795723,
                        0.18462488251442224,
                        0.46323776450624093,
                        0.19483872323894047,
                        -0.10538053619527987,
                        0.09389939039126051,
                        0.00930219820391169,
                        -0.2657353608417765,
                        -0.20266351863656268,
                        0.044219893993505545,
                        -0.0097654227816388,
                        0.08986039529794818,
                        -0.23780391523700004,
                        -0.1444926475810737,
                        -0.08706296395520836,
                        -0.035877762428188326,
                        -0.09802823431715144,
                        -0.24085650674987247,
                        0.16000320963018042,
                        -0.075633827705887,
                        0.014216861291741791,
                        -0.05779553101235073,
                        0.061543979800476115,
                        0.11622436262389352,
                        0.10886175752703718,
                        0.053824809152057285,
                        -0.23667782317567587,
                        0.05478971015793456,
                        0.21186758542117687,
                        -0.19154880044219028,
                        0.3103138760353186,
                        -0.2553312702554728,
                        0.017618867857844882,
                        -0.2574045428206967,
                        -0.1597626048932787,
                        -0.17581737553511473,
                        -0.15284565017265467,
                        -0.25372026794358704,
                        -0.057274487221084455,
                        0.07065143639647388,
                        0.3445649000470646,
                        0.0010290672671411372,
                        0.12451417647196603,
                        -0.035760642286420855,
                        -0.13757687913398609,
                        0.13124203471792878,
                        0.05861947842171004,
                        -0.0386958045795623,
                        -0.32435843944094894,
                        -0.0132190552272815,
                        0.3561913404954601,
                        0.2634560450154645,
                        -0.3235964701636864
                    ],
                    [
                        0.01310540850198832,
                        0.055141840883511484,
                        0.06127984434619918,
                        -0.15673497125475455,
                        -0.003957550746283687,
                        0.05193799521822116,
                        0.1153978315176564,
                        0.2112677146138913,
                        -0.0266782943208431,
                        -0.09072770137500526,
                        -0.009961724188419674,
                        -0.17266452021424433,
                        -0.2942816776831184,
                        0.06119975501290068,
                        0.1800119866677148,
                        0.0670504083072524,
                        0.08429324462428694,
                        -0.26005773659246756,
                        0.13375267575605526,
                        -0.22406621182703257,
                        -0.0508195407334081,
                        -0.160004315033128,
                        -0.3269455028529522,
                        -0.21572638084146714,
                        0.029583376108239405,
                        -0.22355417039977307,
                        -0.22175059088465804,
                        0.06092137956151865,
                        0.05811930622437249,
                        -0.26211271840445116,
                        -0.2077950308104738,
                        -0.08441327341747555,
                        -0.21859967922898793,
                        0.17740332320382757,
                        -0.009007698208484616,
                        -0.18336474540219064,
                        -0.030077171850998147,
                        0.05769227847909494,
                        0.02367471808904752,
                        0.05677021255169297,
                        -0.1498399536205216,
                        -0.20905587240324125,
                        -0.08435751266148707,
                        0.11840775792303183,
                        -0.2451989836170681,
                        0.012811055017416629,
                        -0.2775930656726546,
                        -0.0945946553805288,
                        0.03031066001870659,
                        0.1844932750601023,
                        -0.3292882842816099,
                        0.07451977868352812,
                        -0.200961048587521,
                        0.2654887720763086,
                        -0.12489060755599239,
                        -0.008657639403297532,
                        0.042480720196553357,
                        -0.07366175115555305,
                        -0.23189804761774524,
                        0.2855296324885037,
                        -0.28626458121782355,
                        -0.18388521407893965,
                        -0.28977996874114187,
                        0.18801248027783396
                    ],
                    [
                        -0.030744474703347777,
                        0.041153166144530726,
                        0.05851823552903503,
                        0.046013110548165634,
                        -0.0550230745523087,
                        0.32917521354986296,
                        0.18398470772090036,
                        -0.14701024242344374,
                        0.20458604339021375,
                        0.06670360886066176,
                        -0.0685983444767861,
                        -0.2056821530594178,
                        0.2889249336130238,
                        0.321693550482249,
                        -0.18907513408829132,
                        -0.20955668378070266,
                        -0.05363378206497878,
                        0.08470544339555725,
                        -0.3187968317807118,
                        0.18916177527495498,
                        0.23805528052503047,
                        0.13178604104606906,
                        0.15204253894184247,
                        -0.16163749622443538,
                        -0.039670382819528484,
                        0.14445590555045662,
                        -0.024297560486893112,
                        0.13040519794222208,
                        -0.07093239563669877,
                        -0.07122033906971276,
                        -0.18256818649839535,
                        0.06666172359146368,
                        0.04868125820504825,
                        -0.13586043894357655,
                        0.27421102898234867,
                        0.0502493861274707,
                        -0.18812225403177885,
                        -0.24386545563398543,
                        0.3312247289694193,
                        0.22625489764670553,
                        -0.1918913442262297,
                        0.1719356238082045,
                        -0.26983384676425387,
                        -0.2899402797111789,
                        -0.009346914659730924,
                        0.021304873781052856,
                        -0.36047748772989285,
                        0.08242797353778025,
                        0.08252946793955758,
                        -0.1951819301118935,
                        0.31081395103151505,
                        0.4079297281139261,
                        -0.026607471772507635,
                        -0.07833095463357295,
                        -0.26456738655575535,
                        -0.022739494818963736,
                        -0.04175469855507727,
                        -0.03335367144143195,
                        0.15380454965645224,
                        -0.3651079829104879,
                        0.07228925275889557,
                        -0.0050328208699190625,
                        0.03641839378573535,
                        0.14750004755101995
                    ],
                    [
                        -0.1764174215845006,
                        0.1890547151861437,
                        -0.3416534822456816,
                        0.4855472331010402,
                        0.08743913644138773,
                        0.17418880866073808,
                        0.1487729075690063,
                        -0.395062550129156,
                        0.20021934768815733,
                        -0.2200328064232843,
                        -0.1288417249253175,
                        -0.1374948125665436,
                        0.37436175921381737,
                        0.4303945183574524,
                        0.3509352112749611,
                        -0.25254794808779396,
                        -0.04465404980897131,
                        -0.09480432776208747,
                        -0.40010301332818177,
                        0.19039550602495725,
                        0.03665423387586564,
                        0.013042500229636118,
                        -0.0028309400180210583,
                        -0.06303733221965126,
                        -0.3419301394836787,
                        -0.1288503127402557,
                        -0.1740226452040387,
                        -0.11297065140978375,
                        -0.46161191094858495,
                        0.5356939078452235,
                        -0.006416714684014502,
                        -0.0032780857913303086,
                        0.24407418139209833,
                        0.013860197360736348,
                        0.4347105708909064,
                        0.22212341389649629,
                        0.0372363628370847,
                        0.06718035744451016,
                        0.0901124019434923,
                        0.4281133977866345,
                        -0.2518277313679703,
                        0.06860911882911334,
                        0.14162921467149608,
                        -0.038589053102864354,
                        -0.14292663189412091,
                        -0.40489858578646554,
                        -0.09318008467864232,
                        -0.4952644724617007,
                        0.10251545213154037,
                        -0.24287715895365164,
                        0.3046105615386561,
                        0.27729207929418637,
                        0.2096675385375727,
                        0.21241033218835545,
                        -0.13596741791235153,
                        -0.43244453734170635,
                        0.2419738047145899,
                        -0.060647277012994924,
                        -0.29223723746547153,
                        -0.19987947876178971,
                        -0.11429942285848368,
                        0.09495302432566688,
                        0.49484310533739917,
                        -0.3428631802304459
                    ],
                    [
                        -0.28942461461556007,
                        0.15738931402973277,
                        0.08638616881520092,
                        0.08045100599228805,
                        0.21925845476326408,
                        -0.16773620521943808,
                        -0.3020772316734131,
                        0.07349392019647945,
                        0.038769299210923897,
                        0.13024810592099786,
                        0.06570619579379362,
                        -0.24117468398624886,
                        -0.13449877308887045,
                        -0.023829251000659777,
                        0.2252962931750388,
                        -0.204896266474058,
                        -0.0030356912257398375,
                        -0.23170370583112032,
                        0.03415213825223967,
                        -0.2001639183243171,
                        0.22496960831161347,
                        0.05178633423043813,
                        0.10484764709157844,
                        0.06222393694945912,
                        0.1625492374792354,
                        -0.09836144111920797,
                        -0.011235768700513798,
                        -0.050565207370294823,
                        -0.15765763531764776,
                        0.11063108044148148,
                        -0.24548088500956913,
                        -0.2603701661637126,
                        0.08985311605773458,
                        0.12707617180373337,
                        0.042368436095772316,
                        -0.1363983231661632,
                        0.2512506503076596,
                        -0.19575045160473853,
                        0.10571568729562672,
                        0.2833073646242295,
                        0.1795071761406844,
                        -0.2836112915765283,
                        -0.08661467229966703,
                        -0.08097511868986886,
                        -0.09995676415415637,
                        0.08069678452113396,
                        -0.19173329657405888,
                        0.16777070480974707,
                        -0.17297923531017184,
                        0.3340599523117613,
                        -0.01498505902519834,
                        0.4024731264147833,
                        -0.21070974306083823,
                        0.023979466594971754,
                        0.04112253311806294,
                        -0.15958344960257723,
                        0.24811193104019724,
                        -0.26699706672531553,
                        0.09343097324016977,
                        -0.074122756835,
                        -0.44580039669839494,
                        -0.1001190425801962,
                        -0.15446796923783268,
                        0.027428409401353673
                    ],
                    [
                        0.027457309829369444,
                        0.006516994527659222,
                        -0.23406921681250673,
                        -0.3156798086442275,
                        -0.007507301951441163,
                        0.0661453018266247,
                        -0.4198226562518099,
                        -0.10569509339607223,
                        -0.03797524275093745,
                        0.07500856424827826,
                        -0.05238680330998725,
                        0.24480403655303545,
                        -0.013492919350780468,
                        -0.21660804080960128,
                        0.11197021694425478,
                        -0.1962377777603478,
                        -0.15437286574823833,
                        0.060659402018044026,
                        0.22322738006818513,
                        -0.05490089957216723,
                        0.1161854060939917,
                        -0.28369116158161684,
                        -0.24522133192229142,
                        0.05220743871546701,
                        -0.01726835388882909,
                        0.029112484287264685,
                        -0.04498509174161774,
                        0.05266766432304484,
                        -0.009595456713315138,
                        0.10623438040296247,
                        0.1746664595382772,
                        0.2628751133583641,
                        -0.1529073170121067,
                        -0.12505252567562336,
                        -0.010515387555791757,
                        -0.27270395355959715,
                        -0.1200028401410653,
                        -0.19726422189649478,
                        0.07080527163680708,
                        -0.1748479501738193,
                        -0.16534953918154593,
                        -0.23559189567948516,
                        -0.17877860952747612,
                        -0.36012378216153973,
                        0.28435671542922775,
                        -0.04803213476700767,
                        0.05866925806676283,
                        -0.16035671835209517,
                        0.0029183009299541675,
                        0.12804112517493513,
                        0.015314261239631907,
                        0.20546929025807945,
                        0.18564942596670492,
                        0.22591419210381503,
                        -0.15284637703594592,
                        0.169746911221951,
                        -0.17026096216092737,
                        0.09925778230817628,
                        -0.14325475523726477,
                        0.17143959892277333,
                        -0.4358819238213828,
                        -0.03694524996931367,
                        -0.2009413708201951,
                        0.0058652620181828775
                    ],
                    [
                        -0.0222333081638756,
                        0.13372999716813389,
                        -0.09105340969584294,
                        -0.08342773671753784,
                        -0.15242946735229748,
                        0.14806480764290494,
                        0.08653672115079596,
                        -0.17317340930875721,
                        -0.061066396985515393,
                        -0.25119474486384086,
                        -0.09757246315885772,
                        -0.13288699083110622,
                        -0.14742144494058632,
                        0.1041495129185123,
                        0.01880201477111346,
                        0.09877101032662766,
                        -0.07115942907478472,
                        0.04219108853926725,
                        0.0390974445238415,
                        -0.08246541662224477,
                        -0.10535564639428445,
                        0.005107013863909828,
                        0.014610148579657941,
                        0.040839537348549275,
                        0.1948635867063759,
                        -0.19996900452033098,
                        -0.012518414144184017,
                        -0.013877002384880951,
                        0.094703823159975,
                        -0.10853311571303884,
                        0.06843759945131256,
                        -0.04005528117684484,
                        0.1389556870637215,
                        0.1936795178609429,
                        0.23572962505748607,
                        0.15239326152822003,
                        0.11570777355090439,
                        -0.08580983565775564,
                        -0.1792780443474764,
                        0.13932703403752408,
                        -0.23956734642550864,
                        -0.18436199816627638,
                        0.245781529332436,
                        -0.22935592852815986,
                        0.09210828254936321,
                        0.07409861081973934,
                        -0.2900923043088108,
                        0.22068636828149935,
                        0.23621461561941723,
                        0.11020693873835401,
                        0.08508337593816055,
                        -0.1368615034108081,
                        -0.11040352488990351,
                        -0.27565920628252993,
                        0.1433771554358869,
                        0.16762407733054668,
                        0.11574784090094486,
                        0.11308139727116737,
                        -0.06279270588658842,
                        -0.16595329602417708,
                        0.07694616424734102,
                        -0.0796067125436904,
                        -0.24064394739362155,
                        -0.05455930246853411
                    ],
                    [
                        0.23602483892497267,
                        0.04982264807172112,
                        0.10099464222110864,
                        -0.017631491986131665,
                        -0.05907105183174217,
                        0.07703576057847714,
                        0.06750952619360623,
                        0.20226123196919946,
                        0.0801814304526913,
                        -0.14064227791479963,
                        -0.010033228424622365,
                        0.19807105438992262,
                        -0.09027343925717791,
                        0.07160438045032566,
                        -0.06724777854645948,
                        -0.24302116264593507,
                        -0.10262257169504238,
                        -0.06941773439327921,
                        -0.029354474904086537,
                        0.016007578645440723,
                        -0.25728677323033594,
                        -0.015632135244149095,
                        -0.15924818609867084,
                        -0.009695318651849607,
                        0.16300501019103264,
                        -0.17123008298006195,
                        -0.014498061652856041,
                        -0.14575859010796732,
                        -0.013913665044464726,
                        0.009075706452080081,
                        -0.23315336402806072,
                        0.1016871011492825,
                        0.018441430420920047,
                        0.0574570925306155,
                        0.13498087639631,
                        -0.28395905162914237,
                        -0.1513172811755738,
                        -0.13271405616950527,
                        -0.08671453441759289,
                        -0.20568249747889528,
                        -0.15811322406594908,
                        -0.33383774478732386,
                        -0.09820762416610845,
                        -0.25858017095257224,
                        0.06054850830662019,
                        -0.19441535942894264,
                        -0.3949441627146563,
                        0.1579687144052418,
                        0.23629608698674925,
                        -0.23380469150707472,
                        0.24761871109864927,
                        0.39466894141222336,
                        -0.14369565043465893,
                        -0.25918084692227505,
                        0.10276637138322268,
                        -0.041106387576295145,
                        0.0678912061456503,
                        -0.21101001463550148,
                        0.11881530724372974,
                        -0.030422378371825085,
                        -0.2980353990125349,
                        -0.1991971601660456,
                        0.24951580031064702,
                        -0.1881930037350098
                    ],
                    [
                        0.11988309440315144,
                        -0.028988185522138776,
                        0.31111058873774106,
                        0.05302581267543875,
                        -0.06579708753672918,
                        0.13639678282841872,
                        -0.33793680523864517,
                        0.030170606920397976,
                        -0.13109814893192773,
                        -0.06415328436061125,
                        0.10073433397913076,
                        -0.15397568468625822,
                        0.026133582928138915,
                        -0.14535124505231176,
                        0.20949285019650216,
                        -0.14749511183960576,
                        -0.03252242048654515,
                        -0.011966662908697256,
                        0.267976331909326,
                        -0.0375773597217903,
                        -0.237509192468912,
                        0.03596535173785147,
                        -0.017805274821079086,
                        0.07651431200428756,
                        0.18998000638093857,
                        0.0496325531938911,
                        -0.14314994622743074,
                        -0.0585664070571408,
                        -0.1460945912727719,
                        -0.027271595745308807,
                        -0.22951659834999932,
                        0.04484563996486784,
                        0.2027921261318556,
                        -0.10802131273981386,
                        0.19050064347238396,
                        0.06480714759732654,
                        -0.17522906225609622,
                        -0.2495477026466202,
                        -0.25814340079587206,
                        0.18127495190235007,
                        0.11443064257043561,
                        0.11379147196432142,
                        -0.08687723344421801,
                        0.28979366447592575,
                        0.18173308182168724,
                        0.10253342012718492,
                        0.041390293186299665,
                        0.22394138331256208,
                        -0.04043185317539851,
                        -0.06945755654851801,
                        0.0543346718357957,
                        0.2549530236202569,
                        -0.18362055418288759,
                        0.2611340218451349,
                        0.09804378385710347,
                        -0.11516724386510252,
                        -0.17397814330875205,
                        0.03557898997944255,
                        -0.0028067637672069727,
                        0.07967443728057833,
                        -0.6094734539057521,
                        0.24699020531425558,
                        -0.2859504853976634,
                        -0.06533605096345566
                    ],
                    [
                        0.03810259398664522,
                        -0.17742545888763864,
                        -0.06999147471060341,
                        0.08427459387103733,
                        -0.11009950327919658,
                        -0.26643302758266246,
                        -0.2415474667470823,
                        -0.02342854590942914,
                        -0.01879100976250504,
                        0.2272451443724527,
                        0.22657741395639505,
                        -0.1452346063316428,
                        -0.17158793391807178,
                        -0.06082115899324023,
                        -0.2570570211197369,
                        0.15288089600057098,
                        0.26280643838293877,
                        0.20541452149776435,
                        0.14532992805772552,
                        -0.24194913034154358,
                        -0.017498621432725237,
                        0.12978815096329005,
                        -0.14189202959257602,
                        0.1749495858604134,
                        0.35035084410829276,
                        0.15424855931117176,
                        -0.18774606387438725,
                        0.34725529743929356,
                        0.13894184495478012,
                        -0.2905150744027394,
                        0.20828977394337395,
                        0.1172104034623221,
                        -0.29708481709509726,
                        -0.1599165826519261,
                        0.01771328832988483,
                        -0.2586900239935482,
                        -0.1791748709931229,
                        -0.1845534300120834,
                        0.12808643888957802,
                        0.1136891440520577,
                        -0.03440147636887464,
                        -0.22519654502859615,
                        0.029801963921595957,
                        0.09412440361640097,
                        -0.05667889684560809,
                        0.05982780033582667,
                        -0.3420455477302495,
                        0.24520298662055393,
                        0.36593805953504116,
                        0.019564757859536278,
                        0.07224703714777352,
                        0.1251808814460187,
                        0.19737761754126493,
                        -0.18166312078692604,
                        -0.15913401502328636,
                        -0.00495030868851091,
                        -0.18682082549927953,
                        -0.10438309910211335,
                        -0.23091143832465746,
                        -0.11939846725237732,
                        -0.32169825808963537,
                        -0.1482315469107412,
                        -0.29075723672581655,
                        0.1997112758581612
                    ],
                    [
                        -0.192739111599568,
                        0.23052364939728448,
                        -0.18457698548707832,
                        0.256875248682017,
                        -0.014197925505941157,
                        0.2905935205861818,
                        0.23762136081542118,
                        -0.25807019199270714,
                        -0.2560682693698928,
                        0.16574390162226582,
                        -0.2507796005130094,
                        0.20923716845886947,
                        0.23649490298978254,
                        -0.09461649348694666,
                        0.1554974747656637,
                        0.23293148894997961,
                        0.05715698511193491,
                        0.18886511848375942,
                        -0.103226024502583,
                        -0.24556062430787332,
                        0.20249801086878652,
                        -0.287256944154704,
                        -0.11210633900064867,
                        -0.20734045073602908,
                        -0.1166945256378159,
                        0.022886544530638007,
                        -0.0735442627526002,
                        -0.19151438773312088,
                        -0.03237576642049523,
                        0.12839725244274958,
                        -0.21891718807062766,
                        -0.03410406053659769,
                        0.10001996033906545,
                        0.1273067481695283,
                        0.07784460856663658,
                        -0.16078778873489505,
                        0.1256130261845141,
                        0.005792016471384907,
                        0.17441043638286977,
                        0.15754395830187182,
                        0.09686160053191922,
                        0.0995355004336079,
                        0.1304940059588604,
                        0.07918558987182758,
                        0.06601995834018538,
                        -0.024109974106732487,
                        0.10662000962981003,
                        -0.1284014123747442,
                        -0.0999768346204424,
                        -0.10481481211327322,
                        0.2153013119587808,
                        -0.1830269730922139,
                        -0.2097247910119173,
                        -0.1834390039233572,
                        0.18316395665698715,
                        0.1827931478880828,
                        0.22540972671664744,
                        -0.1588776181633177,
                        -0.18531623483960905,
                        -0.06111941269778593,
                        -0.06402836610446175,
                        0.09914786543338251,
                        -0.05610384813835597,
                        -0.10418586739017942
                    ],
                    [
                        -0.1975925565102285,
                        0.006188838503478784,
                        -0.11616485555101394,
                        0.09139604290292676,
                        -0.05551101845533815,
                        -0.0631680549342992,
                        0.15170568132297954,
                        -0.25786267735629387,
                        -0.15929371747167786,
                        0.06438323360411581,
                        0.19587466900175515,
                        -0.159730152231503,
                        0.0954127799658803,
                        -0.0021560608248087864,
                        0.03808473162038869,
                        -0.04260556462789511,
                        0.11734622191157305,
                        0.164896091944293,
                        -0.03102605942626224,
                        0.04932755337459904,
                        0.2398003253689534,
                        -0.13992691408310506,
                        -0.1726609701893134,
                        -0.2431028570491226,
                        -0.002829188052143396,
                        -0.14791171336432518,
                        -0.13812438798475066,
                        -0.06869860018562547,
                        0.014284679600395702,
                        0.21625403095678583,
                        -0.16213731515811802,
                        -0.28656607484366403,
                        0.005407334796834168,
                        0.04513196009161452,
                        -0.08049574885311156,
                        -0.011678028581321711,
                        0.07954294853851179,
                        0.025969427141513193,
                        0.3246585835370551,
                        0.2351758203662783,
                        0.08764009070988926,
                        0.1581176156730745,
                        0.2060303214724496,
                        0.11795744529346656,
                        -0.39913501250658046,
                        0.011362760400072346,
                        0.17634886210421438,
                        -0.1177061340069117,
                        -0.07591862300863611,
                        -0.051060173253318145,
                        0.24860066970462097,
                        -0.04287507170101282,
                        -0.14599832940592292,
                        -0.01919317693189911,
                        0.08751598912842473,
                        -0.2338504622607173,
                        -0.1549264147143497,
                        0.03429368349149495,
                        0.07413235194899957,
                        -0.06847976714276227,
                        0.229390668555301,
                        -0.016148999075860808,
                        0.20580608213058604,
                        -0.308664391748777
                    ],
                    [
                        -0.06482760922472998,
                        0.25755377577542937,
                        0.15598446950435227,
                        -0.058679700591318995,
                        0.07685737433776402,
                        0.15933118459419715,
                        0.13720623228204637,
                        0.15933081262464482,
                        -0.002324229338204836,
                        -0.20135328679797768,
                        -0.1716682750173429,
                        -0.2526020343427171,
                        0.11531979959061747,
                        -0.01083451352087436,
                        0.1717561177963369,
                        -0.116025708033836,
                        -0.2005733854728931,
                        -0.2669664958890794,
                        0.1373754533296068,
                        0.16019149189686394,
                        0.05068720679494605,
                        -0.04463430675336413,
                        -0.09434464134834113,
                        -0.21891961715162195,
                        0.16640501716279393,
                        -0.0836677712373972,
                        -0.05758860637043592,
                        -0.012759493947399522,
                        0.08050791381423861,
                        0.21152327352916858,
                        0.049416789699519126,
                        -0.10880741797362543,
                        -0.23948246347167512,
                        -0.20000215948277542,
                        0.2915386712437817,
                        -0.2839942126282324,
                        -0.1991794045157979,
                        -0.1794994404252211,
                        0.25193527280512107,
                        0.05450298913481932,
                        0.06621734273844321,
                        0.04381073721631729,
                        -0.22534589232130073,
                        0.24387695074593133,
                        0.008824160032959244,
                        0.18240121488549663,
                        0.12247524735612712,
                        -0.1503164858269147,
                        0.016536204507878644,
                        0.13618126361844612,
                        -0.06846568227045394,
                        -0.22672612565758152,
                        -0.20709652502767684,
                        0.12185549250925426,
                        -0.20837027159286312,
                        -0.06750038489961195,
                        0.07874163204053242,
                        -0.1577413524620111,
                        -0.2990858557878131,
                        0.038610896287397875,
                        0.2593189146263472,
                        0.05707074475788442,
                        0.14760197812690676,
                        -0.11314325772289154
                    ],
                    [
                        -0.3025726852810396,
                        0.2147310687376658,
                        0.11513040330274715,
                        0.3137145529729679,
                        -0.2244532705581882,
                        0.058853181834424284,
                        0.012136923971167373,
                        -0.3720986662358334,
                        -0.1669128057277666,
                        -0.0964611440221986,
                        -0.3176298604921417,
                        0.0458539382414882,
                        0.12567561802753935,
                        -0.026151710970883188,
                        0.12489424031722547,
                        -0.009551845173706719,
                        0.012473960998689141,
                        -0.1778236868082453,
                        -0.1944391268961517,
                        0.06133216137047143,
                        0.006755368167352496,
                        -0.19801522788363793,
                        -0.004533787211649801,
                        0.15234121121295727,
                        0.022377045697292583,
                        -0.24636106171280645,
                        0.016894874681138428,
                        0.13677510560909129,
                        -0.35056709691193116,
                        -0.024233020604769832,
                        -0.23096745796273854,
                        0.034810037602989376,
                        0.1116331767517361,
                        -0.19270026007686414,
                        0.3465529447993118,
                        0.12554496617792424,
                        0.18023765164520195,
                        -0.0788836756896837,
                        0.3380034917019667,
                        0.22454512671248922,
                        0.0009316135503262268,
                        0.08726539652754492,
                        -0.15330473590078147,
                        0.007052748022636371,
                        -0.12021362091925611,
                        -0.3353550814942102,
                        0.05978248480653737,
                        -0.21969023575893631,
                        -0.06280316024166653,
                        -0.05526566440830393,
                        0.23339072038460543,
                        0.13362290867391424,
                        -0.0019758734586022286,
                        0.19633573990942024,
                        0.20825363524093402,
                        -0.15558381841798394,
                        -0.14554153370993062,
                        -0.13578019850836262,
                        -0.0009191039841594714,
                        0.019161978129507796,
                        0.19465365409218768,
                        0.29344093386369524,
                        0.06784659096479419,
                        0.12993165787531225
                    ],
                    [
                        0.04880031846526781,
                        -0.13351929180839048,
                        0.1522783847129739,
                        0.05936199667031627,
                        0.08701565322792255,
                        0.09640226720067706,
                        0.31232228482452445,
                        -0.003366331866662454,
                        -0.009979259639142247,
                        -0.16077314843947163,
                        0.014880787206571414,
                        -0.13904253430952102,
                        0.12360172622129063,
                        0.28825418084235543,
                        -0.0388251377685286,
                        -0.014601280467501893,
                        -0.1272814695327644,
                        -0.23147249536527068,
                        0.15949223753081088,
                        -0.1962017026927438,
                        0.25323036058384424,
                        0.003432645990394348,
                        0.14199979560480364,
                        0.17985449412571808,
                        -0.1703525170921767,
                        0.1068962890247223,
                        0.16649888390532327,
                        -0.15454139425689586,
                        -0.22328357652083347,
                        0.09880849360439058,
                        0.19958267822393455,
                        0.03708416637160714,
                        -0.11937644348907966,
                        0.13297484354334954,
                        0.14490334319597356,
                        0.032433830307364915,
                        0.14067168668660585,
                        0.03670724928554396,
                        -0.07476955231690065,
                        -0.046056542334832244,
                        -0.1746709187038587,
                        0.30053203944573686,
                        -0.24594401532388652,
                        -0.008725582964879549,
                        -0.08726677982442729,
                        -0.1913049026717243,
                        -0.07090438910222586,
                        -0.030908378324549977,
                        0.05005087078158802,
                        0.14320134418942257,
                        0.1471665364222303,
                        -0.04064775669383163,
                        0.17686904074717963,
                        0.13287757981059478,
                        -0.22811676724890798,
                        -0.24948536669812993,
                        -0.06383723583326573,
                        0.017808402501682075,
                        -0.16903075730148942,
                        0.13666776698832234,
                        0.0012443065434087127,
                        -0.21550214425445532,
                        0.03750358608311124,
                        0.06922178047850205
                    ],
                    [
                        0.00885100280734717,
                        0.030184142488944986,
                        -0.04562798562706675,
                        0.09885172992508856,
                        -0.06642057809357825,
                        0.12163432382278265,
                        0.14567743363738558,
                        -0.01633171363989336,
                        -0.2568540540343476,
                        0.04524713244144509,
                        -0.19688821584631627,
                        -0.1714963750740992,
                        0.2067592656306273,
                        -0.08050822849132097,
                        0.010746418774862498,
                        -0.2019916242485914,
                        -0.03556592209978808,
                        -0.12436821915775309,
                        0.07138059913798825,
                        0.20305096492719332,
                        -0.0509748325960037,
                        -0.03125225526094385,
                        0.18345802484801713,
                        0.03895531253614366,
                        0.17528721462608035,
                        -0.20364858325939575,
                        -0.004925400265992571,
                        0.11981947375993855,
                        0.10289911694900787,
                        0.26337577142173796,
                        -0.12505952701312695,
                        0.07767554375738402,
                        0.17814920452011823,
                        0.08329622054926378,
                        -0.025220795095617064,
                        0.06477153637625399,
                        -0.23136243491662808,
                        0.2178979544072016,
                        0.1762170726020987,
                        -0.14814955994844764,
                        -0.1402022909629152,
                        0.03559222151455136,
                        0.15167492555333262,
                        0.08548359443773726,
                        0.27726230997086415,
                        0.04125657756128114,
                        0.03702558045084937,
                        0.07726774241367423,
                        -0.09706475881866151,
                        -0.1356334527409252,
                        -0.22803064393307837,
                        -0.3603950992435804,
                        -0.1578328541133214,
                        -0.23127014974574925,
                        -0.2835201823734421,
                        -0.05572198520422877,
                        -0.24371600707468122,
                        0.09232916108987424,
                        -0.2959330209840371,
                        -0.1783985817279823,
                        -0.0380027056963779,
                        -0.018054340579185996,
                        -0.2249438388719913,
                        0.2636173310086158
                    ],
                    [
                        -0.21708484458791738,
                        -0.04645667322507185,
                        -0.24455851519200855,
                        0.12065778618321898,
                        0.06105179284430653,
                        0.2611309633452409,
                        -0.10308033161819652,
                        -0.031558310228656856,
                        -0.07450071586054255,
                        -0.3333175251820079,
                        -0.00186380915778254,
                        -0.08307271104318392,
                        -0.09009154937696591,
                        0.23263521301381915,
                        0.17039748463936097,
                        -0.08229962194773496,
                        0.12822872297004612,
                        -0.05725041584798731,
                        -0.2775382416491256,
                        0.09186891571525391,
                        0.24169115777254854,
                        0.15886514528188514,
                        -0.0668252705364596,
                        -0.12923447731660143,
                        -0.08437511233911876,
                        -0.04576527329821915,
                        -0.048199881355791854,
                        -0.08573369476953357,
                        0.12531204759280404,
                        0.20410444324695226,
                        0.2347802969818082,
                        -0.1645074153049292,
                        0.16853633788418668,
                        -0.1834051767625128,
                        0.08460801689624715,
                        -0.269857590299117,
                        -0.14041616518736616,
                        0.06718048846468876,
                        0.07756497917786714,
                        -0.08834959172474507,
                        0.176963648843666,
                        0.1518253506994138,
                        0.15109339985116788,
                        0.17120197374492782,
                        -0.2589477278627416,
                        -0.08905709740450175,
                        0.0219207113241994,
                        -0.14754786356334967,
                        -0.027477708199891374,
                        0.03582670584857256,
                        -0.19210280486677758,
                        -0.2677619374389962,
                        0.14538359536249457,
                        -0.034014266805448404,
                        0.11119637633462448,
                        -0.14803028984760833,
                        0.14616347893123666,
                        -0.012218388637383273,
                        0.04420992087226104,
                        -0.0906125150950855,
                        0.33356537140830206,
                        -0.11466981245135019,
                        -0.011266945571196936,
                        -0.01226906171043779
                    ],
                    [
                        -0.052245864594959106,
                        0.06313203767699438,
                        0.10427938566014941,
                        0.05443076168628069,
                        0.07323980574649976,
                        0.06308832204517395,
                        0.059365328133821414,
                        -0.1602530485890297,
                        -0.22557865060321883,
                        -0.11576382837540933,
                        -0.05591597592363034,
                        -0.11000788672637166,
                        0.2619847950362993,
                        0.19031354002865647,
                        -0.08487435264510551,
                        0.02334567880130267,
                        -0.2047664755569919,
                        -0.13902815759939785,
                        -0.009121015443203236,
                        -0.017943059854004156,
                        0.19847281286278745,
                        -0.21354925085072757,
                        -0.2047061575621171,
                        0.019120868292975303,
                        -0.1945787276134115,
                        -0.22352599995898445,
                        0.08914898282877216,
                        0.21559546600425905,
                        0.17927201992715597,
                        -0.02239126346759095,
                        -0.16074390139651235,
                        0.1710681330919425,
                        -0.21521303275764322,
                        -0.23972786885214828,
                        -0.15747453053423516,
                        -0.3042288344719165,
                        0.18582646851351275,
                        0.26167272782268264,
                        0.09080046762527832,
                        0.0954691958062474,
                        0.01754000699941677,
                        0.16073109148902948,
                        -0.08318890623011947,
                        -0.15090983290085147,
                        0.18289043139294398,
                        -0.07611984671526938,
                        0.06233262993181405,
                        0.007633981086705252,
                        -0.028527453284592465,
                        0.17413528827709762,
                        -0.05602172556717954,
                        0.1164809757065903,
                        -0.2302606608930608,
                        0.19620698560180305,
                        -0.27667926454478653,
                        -0.15764504250133904,
                        -0.1799721280739171,
                        0.1565832865676438,
                        -0.08193408260719123,
                        -0.10382912965662096,
                        -0.06806148190594592,
                        0.26559470963055765,
                        0.14694041366631133,
                        -0.13991112934712804
                    ],
                    [
                        -0.2500897951070344,
                        -0.12347797493963822,
                        -0.25627607002200214,
                        0.3466646565438678,
                        0.10884083265176463,
                        0.12345022963609614,
                        0.26056322869805576,
                        -0.07095511422911398,
                        -0.07193072948236523,
                        -0.22458888535657817,
                        0.09368635485903905,
                        0.008986397103353916,
                        0.13081457742607874,
                        0.25477138024904483,
                        0.05703240595366591,
                        -0.07588140479261721,
                        0.06296474466875589,
                        0.03365306816903945,
                        -0.20878007500732365,
                        0.11396424643252784,
                        0.06260716643137582,
                        0.10406891560843914,
                        0.14981338269671612,
                        -0.17874278646095215,
                        0.12997753945658796,
                        -0.05660893824571306,
                        0.15087137175192017,
                        -0.04396234138458206,
                        0.05856467353148112,
                        0.2300429903613652,
                        -0.01269040206852376,
                        0.19204438113058772,
                        -0.18521227226048073,
                        -0.1009157367958984,
                        0.17861351454546726,
                        0.0341025057009416,
                        -0.029343724395099413,
                        -0.16174790861632396,
                        -0.006888385990355032,
                        -0.07700619459494831,
                        -0.23364199429794058,
                        0.23749905261744678,
                        -0.052259746292688064,
                        0.37496163032311824,
                        -0.12381264003864603,
                        -0.06127659993109071,
                        0.30677141847646655,
                        0.03597133889783993,
                        -0.05877043630463632,
                        -0.1397872220677116,
                        -0.06916612962434215,
                        0.04314126070293595,
                        -0.234162632736574,
                        -0.16538729535043042,
                        -0.25680029501110263,
                        0.08313904767001694,
                        -0.049521597768173636,
                        0.04700720501329135,
                        0.15674994243395987,
                        -0.054542271949671484,
                        0.08648133932144418,
                        -0.006101164281868471,
                        -0.1354799697308131,
                        -0.15723123391956545
                    ],
                    [
                        0.05432887522246578,
                        -0.007691227810824209,
                        -0.10756120600104328,
                        0.2041932304831806,
                        0.18250928643166228,
                        0.13353307673737247,
                        0.06994158656295277,
                        -0.01357356354594599,
                        0.20683424435303804,
                        -0.1295143936876206,
                        0.18926358622319805,
                        0.24762191154511015,
                        -0.08729795244871282,
                        0.19853615230363053,
                        0.1535622611774464,
                        -0.15850862576460806,
                        0.08635528056111208,
                        -0.05587209274444512,
                        -0.28998959393422874,
                        -0.13265708306559137,
                        0.16601498423731895,
                        0.04946678595905643,
                        -0.28773850749914687,
                        -0.26719079682893915,
                        -0.15977557385849206,
                        -0.15258033204789254,
                        0.061679716490436985,
                        0.04955583728480512,
                        -0.16359817383405723,
                        -0.04538454308413604,
                        0.1089821652760718,
                        -0.275681501699952,
                        -0.016550907543108666,
                        0.09018076144336151,
                        0.2908263250506674,
                        -0.2946054952787585,
                        0.030802239747984128,
                        0.12209557510480655,
                        -0.03837110889541946,
                        0.2552814193418298,
                        0.1439408161873385,
                        0.09270128755458214,
                        -0.03965383921370369,
                        0.09734853859060992,
                        -0.1660202511536766,
                        -0.005699737143989436,
                        0.0036870209716179875,
                        0.1021569979791591,
                        0.14762015488171504,
                        -0.14060386459867108,
                        0.05258086931015031,
                        -0.04688968761913076,
                        -0.24732137268935575,
                        0.13940643831489224,
                        -0.11781637164062629,
                        0.051113267204997495,
                        0.21033199956761245,
                        0.15839074545687254,
                        0.02797367374069292,
                        0.11552256854331097,
                        0.06394930885379549,
                        -0.16800845818879345,
                        0.07244503059081021,
                        0.15873156667489796
                    ]
                ],
                "bias": [
                    0.2050699965008951,
                    -0.17653215149869006,
                    0.08829948789243175,
                    -0.10125532836048545,
                    0.03277244132045516,
                    -0.157379061124459,
                    -0.17139830938927497,
                    0.19921698022067122,
                    -0.011422681220477179,
                    0.19907259672715213,
                    0.1687100081766011,
                    0.0,
                    -0.18569756872459472,
                    -0.1447811091116336,
                    -0.10368536702888792,
                    0.0,
                    0.1235894005631223,
                    -0.03798264638943206,
                    0.17772507221258652,
                    0.0,
                    -0.1760940931758324,
                    -0.033779444957895484,
                    -0.08790867178244044,
                    -0.04456979514658639,
                    0.21121903074113582,
                    -0.039247703361064645,
                    -0.020724023774975682,
                    0.21429280606571993,
                    0.17551282477593738,
                    -0.16895824368796186,
                    0.0,
                    0.09242092622447731,
                    -0.0725404695671345,
                    -0.07027001696221477,
                    -0.1512110193872329,
                    -0.07319686996582686,
                    0.0,
                    -0.025532036495976067,
                    -0.1829815958006681,
                    -0.128729751602603,
                    0.0,
                    -0.1601197064392882,
                    0.0803871376359791,
                    -0.021059235458374598,
                    0.22531014782395287,
                    0.19792981526879994,
                    -0.06509856783156097,
                    0.19324907694000087,
                    0.13776399977555198,
                    0.004154178924704133,
                    -0.16121907188002152,
                    -0.08120104122940924,
                    0.0,
                    -0.13259164772429255,
                    -0.04714143438117155,
                    0.19233614078558484,
                    0.0,
                    -0.03165388673618708,
                    -0.059908607254994854,
                    0.1673209259684695,
                    -0.0747653658160435,
                    -0.12072045805195462,
                    -0.16665648168430733,
                    0.2110655716517115
                ]
            },
            {
                "type": "FullyConnected",
                "name": "FCLayer_name",
                "units": 32,
                "activation": "TanH",
                "kernel": [
                    [
                        0.4136584279659066,
                        0.06119625120706584,
                        0.3883313217265705,
                        0.27616963993671284,
                        0.43962699079568457,
                        0.29910652709878943,
                        -0.3237304039933966,
                        0.1177738395299408,
                        0.3124397676826763,
                        0.1313407183243673,
                        0.08330750153449765,
                        0.42077727537810566,
                        0.07053097163258545,
                        0.18774777142366728,
                        0.010385719242020868,
                        -0.3280527446909238,
                        -0.017349893921098366,
                        0.24140895004183396,
                        -0.28552179945126915,
                        -0.40760120547646,
                        0.07731424730918678,
                        0.027361214290484853,
                        -0.004010605441387784,
                        -0.1906204456260049,
                        -0.0845538258389164,
                        -0.09032663640100301,
                        0.41330973654416947,
                        0.236623965113582,
                        -0.39137779370726655,
                        0.2971818450828692,
                        0.15755923267670618,
                        -0.2658846118027203
                    ],
                    [
                        -0.14653324990299288,
                        0.1280197142684672,
                        -0.16017770687949318,
                        -0.30316749965194256,
                        -0.05148666993967503,
                        0.06515209148802772,
                        -0.08079226673655354,
                        -0.21217898301495577,
                        -0.07303545186263047,
                        0.11169494293523301,
                        -0.27987447322633174,
                        -0.19149246951068405,
                        -0.3171982825000103,
                        -0.2932217118595737,
                        -0.11758583752912577,
                        -0.030602832576081367,
                        0.016527382842707737,
                        -0.1780132371329591,
                        -0.10832292373786678,
                        0.1802729691680823,
                        -0.26483223815586393,
                        -0.13510346521499556,
                        -0.009718278068648218,
                        0.29512048697082316,
                        0.19123341442193828,
                        0.09197666215450807,
                        0.047635805750994666,
                        -0.30047450620772015,
                        0.06204023456124544,
                        -0.06885847569853622,
                        -0.247409010301624,
                        0.1778296517702428
                    ],
                    [
                        0.27092568846309184,
                        0.2746703918530447,
                        0.12603913310214365,
                        0.3790263974363639,
                        0.23387723609986846,
                        -0.030082812369913593,
                        -0.03218862248226777,
                        -0.019219618375777618,
                        0.300996667932367,
                        0.3164176875430342,
                        0.157554075658942,
                        -0.09183062769799154,
                        0.10565287013868989,
                        0.1643781526088783,
                        0.14185733756000096,
                        -0.19626920359893432,
                        -0.39692061186780375,
                        -0.010571266571461072,
                        0.10030334607979158,
                        0.05757373156411996,
                        0.02476066402709039,
                        0.19446155199276924,
                        0.046752072637984456,
                        -0.31184948545260005,
                        -0.09158716805967232,
                        -0.05796959511227281,
                        0.22840986674591857,
                        0.31746602218866593,
                        -0.18176796184805694,
                        0.017441462534455474,
                        0.4154322153680735,
                        0.07022560491612514
                    ],
                    [
                        -0.024990962403632983,
                        -0.06239851075082558,
                        -0.1328180944529745,
                        -0.3300872691226473,
                        -0.19674463867115247,
                        -0.09702135292528248,
                        0.3606939288600382,
                        -0.16704321317162657,
                        -0.13459950255987058,
                        -0.057749697186331536,
                        -0.17258164080012306,
                        0.07310339799051079,
                        -0.4152522617944312,
                        -0.10644815444889269,
                        0.060584648647541796,
                        0.2048291439237444,
                        0.06538677443026865,
                        -0.060998219852292264,
                        0.33052288976789634,
                        0.002341497692325509,
                        -0.15221741938603095,
                        -0.060764540873928775,
                        0.29193764094340285,
                        0.34751719506828777,
                        0.4003736007788533,
                        0.10079816061406761,
                        -0.053542572020894345,
                        -0.2720646447228904,
                        0.2582076994631695,
                        -0.41335851573421284,
                        -0.16339020999810766,
                        -0.01835652485515041
                    ],
                    [
                        -0.23973692937084787,
                        -0.07401419685765266,
                        0.1018134570475402,
                        -0.1641653679449226,
                        -0.07708242420075534,
                        0.12104343840613763,
                        -0.14899051023150758,
                        0.13675024408022857,
                        0.17700187831171343,
                        -0.08216080529236296,
                        0.12651298295463684,
                        0.13189482086366275,
                        0.24066892706362544,
                        0.22566434672051547,
                        0.21844710118600696,
                        0.18317593991589792,
                        -0.11032595768647063,
                        -0.25339817425931815,
                        0.12014641745693147,
                        0.12514931535156887,
                        -0.22545439934048483,
                        0.05688086734790937,
                        0.21409470701268263,
                        -0.007977670083585154,
                        0.22151066205654432,
                        0.18701596107192126,
                        0.1465657133001775,
                        -0.09939314355599253,
                        -0.043350349480958936,
                        0.049495527441237204,
                        -0.1864107551116255,
                        -0.09939919532832923
                    ],
                    [
                        -0.1310270410769445,
                        -0.24504587392505092,
                        -0.2614134007091684,
                        0.21129732111396157,
                        0.07487838123745845,
                        -0.16908764400921358,
                        0.19632057272080952,
                        -0.06692937154297333,
                        0.016788376083468164,
                        0.1220854636303719,
                        0.009509410523862814,
                        -0.02236355062714213,
                        -0.1452437407952144,
                        -0.15753250693617485,
                        -0.14184866195675488,
                        0.17503162038849085,
                        0.12565966594095695,
                        -0.05035243852555522,
